svm_type c_svc
kernel_type rbf
gamma 0.0384615
nr_class 28
total_sv 553
rho -0.191131 -0.0253814 -0.287715 0.00130673 -0.260794 -0.0826627 -0.158627 -0.254362 0.0856699 0.0150982 -0.125199 -0.00126175 -0.247966 -0.133812 -0.31092 0.0113898 0.0790125 -0.298205 -0.0336698 -0.198705 0.0245348 -0.201599 -0.119535 -0.180808 -0.102333 -0.254849 0.0774335 0.169056 -0.102412 0.188522 -0.073174 0.112051 0.0345578 -0.066919 0.272389 0.208563 0.0706551 0.190817 -0.0596046 0.0599027 -0.127291 0.20216 0.266233 -0.112022 0.158577 -0.00786679 0.214763 -0.00178057 0.0745939 0.0114735 0.0905686 -0.0653145 0.263594 -0.266325 0.0230126 -0.239802 -0.0584246 -0.136259 -0.233503 0.11998 0.041876 -0.102518 0.0250304 -0.227918 -0.196656 -0.290239 0.0381845 0.146182 -0.292282 -0.0106359 -0.177185 0.0536829 -0.177303 -0.0967131 -0.159827 -0.0799371 -0.23019 0.109589 0.28483 0.0288485 0.218036 0.136242 0.0356453 0.363997 0.301428 0.168882 0.291313 0.0423752 0.160686 -0.0258634 0.297852 0.358275 -0.010309 0.256198 0.0941043 0.3098 0.0999546 0.174917 0.113257 0.190576 0.0392531 0.363198 -0.258169 -0.0783955 -0.155899 -0.25186 0.0884014 0.0174753 -0.122557 0.0023897 -0.245374 -0.144968 -0.308483 0.0141754 0.0824991 -0.307267 -0.0311362 -0.196066 0.0272653 -0.198833 -0.117477 -0.179292 -0.0996623 -0.251332 0.0791171 0.183501 0.106442 0.00686214 0.338823 0.274462 0.140856 0.260358 0.0302038 0.132537 -0.0601026 0.271412 0.335308 -0.0391609 0.229151 0.06545 0.283446 0.0713931 0.146293 0.0845451 0.162754 0.00968786 0.330007 -0.078822 -0.176852 0.165603 0.0970097 -0.04426 0.154268 -0.170315 -0.0522481 -0.235796 0.0924806 0.159175 -0.220987 0.0476548 -0.11968 0.10549 -0.113659 -0.0384089 -0.103159 -0.0214194 -0.189309 0.165131 -0.100374 0.241006 0.176118 0.0353245 0.158536 -0.0929928 0.0264147 -0.160184 0.169697 0.234759 -0.145012 0.125728 -0.0413753 0.182374 -0.0353845 0.0404788 -0.0222537 0.0572358 -0.0974104 0.231767 0.335399 0.268058 0.136817 0.253982 0.00672723 0.125873 -0.0616293 0.264977 0.329695 -0.0460403 0.222655 0.0586693 0.277075 0.0645703 0.139894 0.0783187 0.156054 0.00296856 0.326053 -0.0784271 -0.207949 -0.0894294 -0.326672 -0.216007 -0.386278 -0.0821345 -0.0066403 -0.372936 -0.118948 -0.279525 -0.0612403 -0.289843 -0.202573 -0.261762 -0.186393 -0.330179 -0.0099599 -0.147536 -0.023852 -0.261802 -0.147345 -0.32413 -0.00358486 0.0711162 -0.310314 -0.0483565 -0.212832 0.0107413 -0.217072 -0.133762 -0.19465 -0.116859 -0.26666 0.0679348 0.125264 -0.127403 -0.00849009 -0.193925 0.135813 0.201595 -0.179033 0.0913489 -0.0760948 0.148537 -0.0701502 0.0056598 -0.0580059 0.0224445 -0.13594 0.198938 -0.24762 -0.132476 -0.31056 0.0118965 0.0823804 -0.297819 -0.0331842 -0.198502 0.0250686 -0.201136 -0.119116 -0.181042 -0.101932 -0.259515 0.101941 0.119161 -0.0713304 0.258671 0.330784 -0.0527225 0.216184 0.0518634 0.270859 0.0577514 0.132943 0.0709749 0.149401 -0.00388608 0.3178 -0.185782 0.143984 0.224022 -0.179259 0.124381 -0.0677891 0.157248 -0.0621421 0.0141434 -0.0490125 0.0310496 -0.123114 0.206894 0.321144 0.380882 0.015568 0.280165 0.119642 0.332856 0.125528 0.199348 0.13855 0.215409 0.0642963 0.377824 0.0748583 -0.30725 -0.0450909 -0.209665 0.0144088 -0.213648 -0.130227 -0.191275 -0.113676 -0.262382 0.0712473 -0.386328 -0.113124 -0.273706 -0.0546974 -0.283579 -0.196261 -0.256243 -0.180774 -0.324329 -0.00329914 0.267343 0.11028 0.342479 0.110356 0.190777 0.126465 0.210874 0.0491464 0.382509 -0.166151 0.0580855 -0.165914 -0.0857293 -0.147603 -0.0690998 -0.219916 0.109155 0.147785 0.00596304 0.0834968 0.0194046 0.0988273 -0.0564574 0.276019 -0.227404 -0.146077 -0.206354 -0.128205 -0.277615 0.0561177 0.0757803 0.013224 0.0923677 -0.0616839 0.279932 -0.106832 0.0168332 -0.268329 0.193022 0.0792463 -0.0431049 0.272422 -0.153229 0.17721 0.35135
label 97 98 99 100 101 102 103 104 107 109 110 112 113 114 115 116 119 120 121 122 50 51 52 53 54 55 56 57
nr_sv 33 19 24 12 25 13 22 15 12 17 26 16 21 15 26 9 15 23 17 24 15 27 11 21 22 16 32 25
SV
0 0 0 0.04365329649406632 0 0 0 0 0 0 0 0 0 0.003451548968854414 0 0 0 0 0 0 0 0 0.01184802355021855 0.0031119582819632 0 0 0 2:5 3:8 4:6 5:6 6:6 7:7 8:10 9:9 14:1 15:6 16:7 17:2 18:4 19:8 20:6 21:4 22:5 23:8 24:6 
0.1662145553798498 0.2004003903864294 0.1449069757357639 0.4773042590935159 0.152871750982308 0.1666733846769836 0.1729294913181407 0.1526523686391892 0.2229596530094052 0.1956748465834177 0.1741661905793954 0.1550065126906902 0.1554636216750202 0.18629533243253 0.1424914323052448 0.2075957767426732 0.222033047995555 0.1401130823729763 0.1988322705406765 0.1657105144114565 0.2067042456778489 0.1637786063861647 0.1824928703257799 0.1721803585003463 0.1840147030423974 0.1572047720894409 0.2200985350873675 2:4 3:8 4:7 5:6 6:8 7:7 8:10 9:9 14:1 15:5 16:7 17:5 18:4 19:7 20:7 21:4 22:5 23:8 24:6 
0.2443913797889171 0.2969517661496425 0.2154917800281958 0.2991964344445828 0.2231634260640822 0.2842163205515188 0.2539466109327684 0.2247780524121188 0.3275324975793107 0.314485537254562 0.2672077167402336 0.383989545731389 0.2265805509603138 0.2659023753503037 0.2075273056235463 0.3082983661991501 0.3258736279447124 0.2148554396249031 0.2932246616635109 0.2417442528291735 0.309468651616966 0.2405338670587398 0.2636502672781362 0.2476814758284486 0.271200618463442 0.2268926576280105 0.3510996716656247 1:1 2:5 3:9 4:7 5:6 6:6 7:6 8:10 9:9 10:2 14:5 15:7 16:5 17:7 18:7 19:6 20:4 21:6 22:8 23:6 
0.0682207539091665 0.081519602636258 0.05780643576310898 0.184860323518825 0.06288013039385713 0.07391485018900218 0.07052140335722608 0.06187206883613484 0.09117213602363454 0.0781531617118527 0.07590372449483693 0.08958948589054139 0.063509217781866 0.07436323396357591 0.05814368242271197 0.0858930363388026 0.09010907906786922 0.05912786643752039 0.08177648605577301 0.06711053201134597 0.08208193125539605 0.06664952941384852 0.06966359952089603 0.06881980596177983 0.07567010268616067 0.06821169249802538 0.096216637355226 1:1 2:6 3:8 4:6 5:7 6:7 7:7 8:10 9:9 10:2 14:1 15:5 16:8 17:4 18:5 19:7 20:7 21:5 22:7 23:8 24:6 
0.2120037182921214 0.2560389227589099 0.1876863143475304 0.177895297365292 0.1936835884034603 0.273141605193745 0.2212807371322716 0.1970294010451726 0.2855958692319712 0.2672545745956676 0.2225569946260279 0.4105971514546091 0.1976180329351067 0.2192517085381505 0.180538375692786 0.2662694137242846 0.2832961944824585 0.1840953970502793 0.2533354865028129 0.2109258468498196 0.2699621181344067 0.2100854028751017 0.2271386964356579 0.2149038777482632 0.2364488699311103 0.1893685904341101 0.2890910697467851 2:4 3:8 4:7 5:6 6:6 7:8 8:10 9:10 10:2 14:1 15:6 16:7 17:5 18:4 19:7 20:7 21:4 22:6 23:8 24:6 
0 0 0 0 0 0 0 0 0 0.02411258939998271 0 0 0 0 0 0 0 0 0 0 0 0 0 0 0 0 0 2:6 3:9 4:6 5:6 6:6 7:6 8:10 9:9 14:6 15:8 16:4 17:4 18:7 19:6 20:4 21:5 22:8 23:6 
0.1879690624042789 0.2263422025595024 0.1653755855843623 0.1486251983209748 0.1724652810317932 0.2129114966567116 0.1963723616616058 0.1737371525308546 0.2522859791355156 0.2245772970141996 0.2025519340292699 0.2168862910644434 0.1752955267979076 0.1988370812708497 0.1606492720454121 0.2344644784494828 0.2502576274582861 0.1569312543953141 0.224186567011797 0.1862068892371644 0.2378738619767437 0.1849855427182496 0.2052498451360621 0.1928412767394765 0.2084063987663204 0.1749581290099571 0.2467049033333663 2:5 3:8 4:7 5:7 6:6 7:7 8:10 9:10 14:7 15:7 16:2 17:4 18:8 19:6 20:6 21:6 22:8 23:6 
0.08908453626151366 0.1080613493860151 0.07840262749251076 0.6532804847581322 0.08153116996072349 0.09441740210499934 0.09284279966912408 0.08292387692616236 0.1189759030679518 0.09998012939252531 0.105020940350891 0.01569685924938569 0.0832314253231137 0.09929305515562428 0.07701348714773058 0.1104862236545196 0.1185746432384769 0.07673631318771292 0.1053243627446677 0.08862127669941908 0.1125333302901514 0.08751846895756209 0.1013253040388251 0.09361942275840578 0.09811266894797577 0.09140182578854181 0.1097248619948642 2:6 3:9 4:7 5:6 6:6 7:7 8:10 9:9 10:1 14:5 15:8 16:5 17:5 18:7 19:8 20:4 21:5 22:8 23:6 
0 0 0 0.1035676113686713 0 0 0 0 0 0 0 0 0 0 0 0 0 0 0 0 0 0 0 0 0 0 0 2:4 3:8 4:7 5:8 6:7 7:7 8:10 9:9 14:5 15:7 16:4 17:5 18:7 19:7 20:4 21:7 22:8 23:6 
0.05377229692966842 0.06732732034003129 0.05123262944158213 0.08211126127335218 0.04807825236025407 0.07839219006353917 0.0562980794993509 0.04997534721686434 0.07281415705620367 0.08021391006245962 0.0659561417358947 0.1135265519817795 0.04962799427449373 0.06890194484469651 0.04568049144652552 0.06777559701941438 0.07209155606298501 0.05061462978958108 0.0648355131613118 0.0534688585839518 0.07089109960837245 0.05367557391777668 0.0756663360335202 0.06062217824023337 0.06028574103805139 0.1006716086027591 0.09398314066281065 2:5 3:9 4:6 5:6 6:7 7:7 8:10 9:9 10:1 14:2 15:5 16:7 17:4 18:6 19:7 20:6 21:4 22:5 23:8 24:6 
0.1490901137815332 0.1821368563304983 0.1309186243669706 0 0.1362910936362251 0.1900760804870064 0.1549697038453272 0.1366429567796432 0.2005292594775842 0.2206329522855682 0.1630039494795771 0.3430596913053035 0.1386230210484541 0.1621878836426265 0.1263475425047012 0.1870696618232932 0.1990238824830742 0.1289416342289639 0.1798599655024331 0.1477590567442923 0.1892334370094357 0.1463353720185716 0.1597857301103684 0.1504885777545008 0.1667517025501275 0.1309172707829225 0.2087138407619129 2:6 3:8 4:6 5:6 6:6 7:7 8:10 9:10 10:1 14:6 15:9 16:5 17:4 18:7 19:6 20:4 21:5 22:8 23:6 
0.05573729334816488 0.0614729736994066 0.0484811801767094 0 0.05158633449380472 0.06111271080584466 0.05860137117221279 0.04978603170789948 0.07504582126050162 0.06480969999503902 0.05691598046868551 0.07234415146944051 0.05106989736787475 0.04868749385091589 0.04887383603362645 0.06934540134532884 0.07416415296961053 0.03793899196710737 0.06527534909146941 0.05292479291666961 0.06856892936271145 0.0550170407845549 0.04975555798244104 0.04828896305194323 0.06097966345221189 0.0360314250738638 0.05319658770147416 2:4 3:6 4:6 5:7 6:6 7:7 8:10 9:10 14:1 15:6 16:6 17:2 18:5 19:7 20:6 21:4 22:5 23:8 24:6 
0.1809576844900369 0.2177967036292081 0.1584325928644389 0.1498330461072377 0.1649979705636571 0.2267905697614679 0.18836205398133 0.1670856372443615 0.242725519510832 0.2321031419174923 0.2014535121054676 0.3612531753630902 0.1677963697349683 0.1953901011601056 0.1535575530012564 0.2246129316509817 0.2402260723159926 0.1554542656408753 0.2149046929604909 0.179028653426539 0.2287756874192651 0.178309878878732 0.1982649162720742 0.1874569996436964 0.20007575572867 0.1837045026186427 0.2678706752078895 1:1 2:5 3:9 4:6 5:6 6:6 7:7 8:11 9:9 10:3 14:5 15:8 16:5 17:5 18:7 19:6 20:5 21:5 22:9 23:6 24:2 
0.1320701410078072 0.15726608790116 0.1177749849659677 0.1303143050769932 0.1209200842894608 0.1414795066149439 0.1377226111424089 0.1220229968936395 0.1781142697284515 0.1649374279079839 0.1435380490279206 0.1133866760487295 0.1236097163222635 0.1375107736209524 0.1132766221158158 0.1673289000717319 0.1784751563812556 0.1157317216381359 0.1598087003320129 0.1313351438826038 0.1680955402192787 0.132602365217107 0.148427278823158 0.1323080468103248 0.147351029392695 0.1207970600126863 0.1576444901088122 1:1 2:6 3:9 4:6 5:7 6:6 7:6 8:10 9:10 10:2 14:7 15:8 16:4 17:5 18:8 19:7 20:4 21:5 22:8 23:6 24:1 
0 0 0 0.07159343820698157 0 0 0 0 0 0 0 0.0169679344433872 0 0 0 0 0 0 0 0 0 0 0 0 0 0 0 1:1 2:6 3:8 4:7 5:7 6:6 7:6 8:10 9:9 14:5 15:8 16:5 17:4 18:7 19:6 20:5 21:6 22:8 23:6 
0.2617019784744269 0.3172582037480893 0.2308616242045021 0.3562796225835104 0.2388310015876622 0.2959982056811083 0.2716527838240879 0.2413368394647121 0.3507610166581553 0.3287327624530401 0.2841688566949052 0.339459448498574 0.2433202030859152 0.2879362323970316 0.2224379595302385 0.3269345913007399 0.348504284438679 0.2331902047908598 0.3136854147377584 0.2588008049742668 0.3349036814065012 0.2578634803135176 0.2905410189053099 0.2703915383157594 0.2903599241773154 0.2516988058020503 0.3684340153862565 1:1 2:4 3:6 4:7 5:9 6:6 7:7 8:10 9:9 14:2 15:5 16:6 17:2 18:4 19:7 20:6 21:6 22:6 23:8 24:6 25:1 
0.1784195262055122 0.2157365062536189 0.1591148113868555 0.2408868840750434 0.1628298255362833 0.2080854468011144 0.1865237674268123 0.1645324908337766 0.2401550172466656 0.2249607610916538 0.1942374695711193 0.2477019345787357 0.1662424166034776 0.1924080012766989 0.1523156450061384 0.2229327017137364 0.2390921090929924 0.152696796556456 0.2154622420035849 0.1770146559868403 0.2263348597855385 0.1763911269947152 0.1965967734309184 0.1821514034678231 0.1987791770726652 0.1663463778378873 0.2297864373957367 2:5 3:6 4:8 5:6 6:6 7:7 8:11 9:9 14:5 15:6 16:2 17:4 18:8 19:6 20:4 21:6 22:8 23:7 24:2 
0.002480817824875859 0.0116910902950372 0 0.06580020251221774 0 0 0 0.002576313368879805 2.683812417169588e-005 0 0 0.004152366667783229 0.002351581209979756 0.003505010059368741 0 0.002056240241745781 0.0009510339551268149 0.01160918967641087 0.003527116683550557 0.005868567266227814 0.003331981378726277 0 0.004760376381262868 0.01438204909265047 0.002485063396817629 0.01274415320028239 0.01632234767239861 2:4 3:6 4:6 5:6 6:7 7:6 8:10 9:9 14:1 15:5 16:6 17:2 18:4 19:7 20:6 21:4 22:5 23:8 24:6 
0.01489390189709851 0.02201286349164563 0.01205482834482671 0.008158150403310634 0.01369126829984502 0.01659617457444058 0.01669128904221512 0.01404137023978025 0.01971775696423797 0.01524630750872923 0.0168572404914574 0.0124872337926162 0.01520525610051873 0.0241588116757809 0.01279612818773548 0.01884324843376386 0.02174188450789298 0.02350880894177973 0.02040948871222999 0.0160718630033434 0.02111844606605709 0.01485292009764663 0.01936418636967895 0.01648985020802049 0.01792568489512356 0.01659480762349828 0.02985719626628166 2:4 3:6 4:6 5:8 6:6 7:6 8:10 9:9 14:5 15:6 16:2 17:4 18:7 19:6 20:4 21:6 22:8 23:6 24:1 
0.2604506602513412 0.313621480647451 0.2280409817343722 0.3573295193040124 0.2383898558636885 0.2907520833803344 0.2713530196384509 0.2400644816491798 0.3493671389732551 0.3211651018325429 0.2796437266786933 0.2794058255992399 0.2423696448774407 0.2773245755645822 0.2216549922438606 0.3260747367363744 0.3475255637473309 0.2212798463251301 0.312746445675092 0.2586021096426526 0.3292727817659786 0.2578500837419128 0.2811207264637988 0.2628828794898232 0.2892333770554271 0.2364895972457576 0.320902833590249 1:1 2:5 3:6 4:6 5:6 6:8 7:6 8:10 9:9 10:2 14:5 15:6 16:2 17:5 18:7 19:7 20:4 21:6 22:10 23:7 
0 0 0 0 0 0 0 0 0 0 0 0.01370085639031647 0 0 0 0 0 0 0 0 0 0 0 0 0 0 0 2:4 3:6 4:6 5:6 6:6 7:6 8:10 9:10 14:6 15:6 16:2 17:4 18:7 19:6 20:4 21:5 22:8 23:6 
0.01263747820654792 0.01271116374573272 0.007633297527225698 0.1145891493677164 0.01047214954646521 0.005618426449058029 0.01083016638909952 0.01097455344984369 0.01547751809893927 0.01052202684909431 0.009024501939901015 0 0.009731406696142532 0.01347967086725351 0.008859465063583731 0.01393441518597143 0.01373974314393285 0.01300098494971968 0.01209962755753546 0.01029142000195319 0.01286550993330216 0.01029828584779506 0.0105045078606788 0.008459503851983397 0.01181987278758859 0.007371978742195513 0.0005934012922359462 2:5 3:6 4:6 5:6 6:6 7:6 8:10 9:9 10:1 14:5 15:6 16:2 17:4 18:9 19:6 20:4 21:5 22:8 23:6 
0 0 0 0.001464100432076208 0 0 0 0 0 0 0 0 0 0 0 0 0 0 0 0 0 0 0 0 0 0 0 1:1 2:6 3:8 4:6 5:6 6:7 7:7 8:10 9:9 14:5 15:8 16:5 17:4 18:7 19:7 20:5 21:5 22:8 23:6 
0 0 0 0.009921312585884879 0 0 0 0 0 0 0 0 0 0 0 0 0 0 0 0 0 0 0 0 0 0 0 2:5 3:6 4:7 5:6 6:6 7:6 8:10 9:9 10:1 14:5 15:6 16:2 17:4 18:9 19:6 20:4 21:5 22:8 23:6 24:1 
0.1863105769431509 0.2241524299171379 0.1631601671688991 0.2694813796294922 0.1703861386447989 0.2045924128790907 0.1928577600338413 0.171515491850101 0.2489667935922101 0.2268881035319418 0.1986977153064928 0.1961067455057638 0.172247911600981 0.2072702326174163 0.1582103288081291 0.2329590416281881 0.2479879484401458 0.1693670943782714 0.2226229006977714 0.1839137859911884 0.2374337622203461 0.1854100305123488 0.2030474021782254 0.1874921361747025 0.2056534007832453 0.1690317581479983 0.2662394930662048 2:4 3:6 4:6 5:7 6:7 7:9 8:10 9:9 10:1 14:5 15:6 16:4 17:4 18:7 19:6 20:6 21:5 22:8 23:7 24:1 
0.05472780057255754 0.06432746031795419 0.04795761764550424 0.07290023730286269 0.04957426079459896 0.04573278374186609 0.05726069752548715 0.05016725702514236 0.07378225212580306 0.06296888200045951 0.05580860424242325 0 0.05102891647898422 0.05575472052712308 0.04614555532142922 0.06772253071624694 0.07223230840665113 0.04903947614852722 0.06342089336223711 0.05453408167990163 0.06919389987023299 0.05395708243034091 0.05878535401629871 0.05341323598324603 0.06025459963206938 0.03922621770525551 0.09348842131662968 2:4 3:6 4:6 5:6 6:7 7:7 8:10 9:9 10:2 14:1 15:5 16:6 17:2 18:5 19:7 20:7 21:5 22:5 23:8 24:6 
0 0.001884071064717234 0 0.09345230726884227 0 0 0 0 0 0 0 0.02890187780227136 0 0.00405575766280937 0 0 0 0.00991071230445916 0 0.0005750408051179686 0.002867090545571079 0 0 0 0 0.0006093339615242255 0.001226939534157559 2:4 3:6 4:6 5:8 6:7 7:6 8:10 9:9 14:1 15:5 16:6 17:4 18:4 19:7 20:6 21:4 22:5 23:8 24:6 
0.08622332214144392 0.1045498980868519 0.07751634863214152 0.07394001630510556 0.07893617656917376 0.1010201827547587 0.09054805393677873 0.07953333463549105 0.1165621021306654 0.1100708020587356 0.09528914806448215 0.0978019118699321 0.08075252735951362 0.09472613636222374 0.07406780157581178 0.1085609744689071 0.1158741599284232 0.07961374934179315 0.1032046586178743 0.0866153106539472 0.1110809978092911 0.08605346180792815 0.09827112603046907 0.08955793959035938 0.09738553237600869 0.0826950757705107 0.1324233011431617 2:4 3:6 4:6 5:6 6:8 7:6 8:10 9:9 14:5 15:6 16:2 17:4 18:7 19:7 20:5 21:5 22:8 23:6 
0.0612666104817834 0.07319406184019259 0.05933599510467713 0 0.05741346096957873 0.07354194522985239 0.06396701327908408 0.05717568934190739 0.08286228256820047 0.07877716402720084 0.06664320252664947 0.1445324645162689 0.05736908896351212 0.05769242572676672 0.05309230528132236 0.07720622531500877 0.08195875902818217 0.04825256007635564 0.0720815179478434 0.0615512848523078 0.07853278929766028 0.06090541405453351 0.0662884032243999 0.06233291462357668 0.06846234996973902 0.05576573303198935 0.1071460274625121 2:4 3:6 4:6 5:6 6:6 7:6 8:11 9:10 10:2 14:5 15:6 16:2 17:4 18:8 19:6 20:4 21:6 22:8 23:6 24:2 
0.141851952787468 0.1662693659471377 0.1274824241227469 0 0.1312221832377201 0.1704128572790264 0.1491682557707752 0.1317632108542039 0.1935552069942368 0.1860131428334369 0.1537305121159577 0.1818211315117483 0.1319898793739071 0.1559520070531804 0.1220847758297688 0.1793043115451264 0.1921864070125638 0.1249085150732407 0.1707803840490173 0.137975784988988 0.1902154529143094 0.1428063036779518 0.1548353846330065 0.1341066628946739 0.1589700448286069 0.1220968313600403 0.186661765572514 2:4 3:6 4:6 5:6 6:8 7:6 8:10 9:9 14:1 15:5 16:6 17:3 18:4 19:7 20:6 21:4 22:5 23:8 24:6 
0.3254858140695025 0.3936091349597381 0.286661399279565 0.3878516156470925 0.2972751850423084 0.392948524266619 0.3380524984800126 0.2997790330460758 0.4355389642660262 0.4392871575672803 0.3784056132901623 0.4599222718362147 0.3019560675216196 0.3511337544693406 0.2770220043113693 0.4055490553584562 0.4340467208219317 0.2779254082828562 0.3909841202575924 0.3215922773633795 0.4113418026581798 0.320583091251153 0.34929433465933 0.3272328629420797 0.3602106587120691 0.2963235552692486 0.4175816731618839 2:7 3:8 4:6 5:6 6:6 7:7 8:10 9:9 10:1 14:1 15:5 16:8 17:4 18:4 19:7 20:6 21:4 22:5 23:9 24:7 
0.1674111001208053 0.2008424444803575 0.1465043063324066 0.2173206439593064 0.1518131346272997 0.1894053713117304 0.1731506498570751 0.1536269575741259 0.2255576760488761 0.21256564520477 0.1796921903698494 0.1996422940221525 0.1550747050180276 0.1785981834517241 0.1424600718089705 0.2090593391183613 0.2229832884864574 0.1467996246569727 0.1986083116350714 0.1646622255211919 0.2101161224277175 0.1650023605004758 0.179425248413975 0.1691036112256611 0.1846248144570404 0.1522319268779794 0.2387005794890525 1:1 2:4 3:6 4:7 5:7 6:6 7:7 8:10 9:9 10:1 14:5 15:6 16:2 17:4 18:7 19:7 20:5 21:8 22:8 23:6 
0.4837862399584835 0.5820601930154497 0.4281313072795123 0.5663786160312937 0.4424057672456199 0.5585139535695662 0.5032192951661479 0.4466675197054787 0.6493363241229443 0.6070305221064806 0.5218485377995358 0.6437482513145566 0.4497685281948185 0.5147054335987294 0.4121153002579984 0.6053445861276439 0.6464814514915606 0.4182440290594731 0.5787978615277852 0.4794951226671101 0.6130125316714695 0.4777139505360318 0.5281763105410643 0.4908063308911256 0.5367982775702879 0.4515192518649053 0.643628571499905 1:4 2:5 3:6 4:6 5:7 6:6 7:7 8:11 9:10 10:1 14:2 15:5 16:6 17:2 18:4 19:7 20:7 21:6 22:6 23:9 24:7 25:2 
-0.1206185334193007 0.1184897443109111 0.09099629815344877 0.120626497617893 0.09531883860640635 0.1101674413891445 0.157663668411844 0.09292866118429394 0.1293408687481694 0.1279162217177919 0.09688017739729345 0.1222547232948266 0.09613038859228955 0.1085253027483646 0.0905090186899372 0.1229872301376298 0.1288455610439661 0.09054333911376328 0.1175876625916627 0.1002144144154796 0.1228107095144848 0.1034604554015961 0.09613980248186747 0.08909261769932074 0.1125954829198851 0.06933110361778222 0.1256805408162382 2:13 3:13 4:4 5:4 6:4 7:6 8:8 9:6 10:2 14:2 15:2 16:2 17:5 18:7 19:6 20:4 21:5 22:5 23:4 24:6 25:7 26:5 
-0 0 0 0 0 0 0 0 0 0 0 0 0 0 0 0 0 0 0 0 0 0 0 0 0 0.007310249060467385 0 1:1 2:13 3:13 4:6 5:4 6:4 7:7 8:8 9:7 14:2 15:4 16:2 17:5 18:7 19:6 20:5 21:4 22:5 23:4 24:6 25:8 26:5 
-0.3689364601142085 0.363531250482718 0.2738971480185283 0.3679390243064905 0.2866254928040977 0.341760318784353 0.04152257061138635 0.1168849468638954 0.394255590384645 0.3709535291273879 0.3242067924232983 0.3680950992272251 0.2903881216283449 0.3285946970305262 0.2700516474509622 0.3729461819614199 0.3923032523127647 0.2739834217754639 0.3593137278534992 0.3067604293690899 0.3765988714147312 0.308745971455308 0.3315302114738264 0.3165414102628688 0.3367189608453648 0.2824220149138851 0.3915470296051244 1:2 2:13 3:13 4:4 5:5 6:4 7:6 8:8 9:7 14:2 15:2 16:2 17:5 18:7 19:6 20:4 21:4 22:4 23:4 24:8 25:9 26:5 
-0.8843510425289524 0.867636933113495 0.6734237675792771 0.8823649292354546 0.6877019568735181 0.8290052151166886 0.7683012150489852 0.6754899151969391 0.9442359056399576 0.8979394403925113 0.8004917452119508 0.8840934435822984 0.6976253723984132 0.7868809533805468 0.6474716351043085 0.8920313321815403 0.9399297720195589 0.6589031550381312 0.8600130297629289 0.7362748888184968 0.9015768481383923 0.740296221334429 0.7971871041860884 0.7541687378655934 0.8093709505532595 0.714190589326271 0.9387184073056824 1:1 2:13 3:13 4:8 5:7 6:4 7:6 8:9 9:7 10:1 14:2 15:2 16:3 17:7 18:7 19:7 20:4 21:6 22:7 23:5 24:6 25:8 26:5 
-0.7833045877101088 0.7691325515753251 0.5887895486222832 0.7813199360571944 0.6098350577146336 0.7308707466676608 0.9619379428371067 0.6255315098254592 0.8367834028367791 0.8558131480914214 0.7085445266078249 0.783355007251781 0.6185845598478376 0.696841074943241 0.5741733693393832 0.7906934187785766 0.8330325957957397 0.584327799621589 0.7620665147738233 0.6527891286058858 0.7991351226417685 0.6561891306761059 0.7168127338816061 0.6791607798417447 0.7171812151474342 0.6189538645242773 0.8311217240551558 1:3 2:13 3:13 4:5 5:3 6:3 7:5 8:8 9:6 14:2 15:3 16:2 17:2 18:6 19:8 20:6 21:4 22:4 23:5 24:4 25:6 26:7 
-0.08422813372644827 0.08209612014786971 0.05936064210703267 0.08332169363812572 0.06499298401010813 0.07736502278254823 0.1021251640070463 0.2489844439195691 0.09050253337588998 0.08480336055834688 0.07145674294234324 0.08455186641722609 0.06677843185066124 0.07668042459840246 0.06303443792386204 0.0844404108984915 0.08979654038386051 0.06271911510304808 0.08156990445025424 0.06894888001410623 0.08610712017007961 0.0705752411126381 0.0678976727932081 0.06281628667519323 0.07810885696897053 0.04778430409644059 0.08827867049210626 1:4 2:13 3:13 4:4 5:4 6:4 7:7 8:8 9:6 14:2 15:2 16:2 17:5 18:8 19:7 20:4 21:5 22:4 23:5 24:7 25:7 26:5 
-0.09724821946859572 0.09458810760437912 0.08148133105217906 0.09657676982606239 0.07551140079908797 0.0895001143829479 0.1790085136607299 0 0.1038737053454201 0.09404183066190333 0.07232970709936921 0.09741121306159509 0.0760058437881927 0.08713097945057312 0.07231789747713451 0.0979110246833375 0.1030008378604069 0.07119931321352159 0.09580133241424511 0.07994789149996626 0.09931098138898779 0.08115549216804388 0.07808173569727506 0.0803284196517603 0.08846447510923072 0.06354191944053804 0.102905567111481 1:3 2:13 3:13 4:6 5:4 6:4 7:6 8:8 9:7 10:1 14:2 15:2 16:2 17:5 18:9 19:6 20:5 21:5 22:4 23:6 24:6 25:7 26:6 
-0.04087291246571401 0.03808067346385334 0.0578987747785014 0.04012137388200778 0.03089604074143089 0.04433349596731479 0.182220952464921 0 0.04347644030038159 0.03866235536409875 0.01306664894011921 0.04207498769851371 0.03198813067065627 0.03567041890734362 0.02899290446603599 0.04030145077229258 0.04260920786320955 0.03104131267882561 0.03850412185601532 0.0343279509973322 0.04099053915854489 0.03364000304057992 0.03396248631048929 0.02697694447161891 0.03715746304709527 0.04428804730792744 0.04394488857577061 1:1 2:13 3:13 4:4 5:4 6:4 7:6 8:9 9:8 14:2 15:2 16:3 17:5 18:7 19:6 20:4 21:4 22:4 23:4 24:6 25:8 26:7 
-0 0 0 0 0 0 0.2085844312607896 0 0 0 0 0 0 0 0 0 0 0 0 0 0 0 0 0 0 0 0 1:3 2:13 3:13 4:4 5:4 6:4 7:6 8:8 9:7 10:1 13:1 14:2 15:2 16:3 17:6 18:8 19:7 20:4 21:4 22:5 23:4 24:6 25:8 26:5 
-0.6995163323454804 0.6862326584481433 0.5239623248667663 0.6982804130727888 0.5436437348349821 0.6526330390604436 0.5602478493982421 0.5702262324686341 0.7467987357912229 0.6996035803487821 0.6372645363987871 0.6989327423472849 0.5515362481710624 0.6218009916144024 0.5119188816901632 0.7057480180460102 0.7430705979954155 0.5210787540629578 0.6800554293198065 0.5825360226244288 0.7128839060171179 0.586490300558538 0.6440207630412349 0.60288440228816 0.6400939633279043 0.5779879297790973 0.7447255567835622 2:13 3:13 4:4 5:4 6:4 7:8 8:9 9:6 14:2 15:2 16:3 17:5 18:5 19:7 20:7 21:4 22:4 23:4 24:5 25:6 26:7 
-0.08404511782910847 0.08475378802925561 0.06008030431153618 0.08527549569701141 0.06654982054812553 0.07755409838727007 0.502096137382018 0 0.08928508358300961 0.1107096311306187 0.04807978401284481 0.08384859119592507 0.06777516824503821 0.07477486836288333 0.06116634930342356 0.08570979616017771 0.09013864198842451 0.06375450479253246 0.08215277765655278 0.07134273703898353 0.08588740787460091 0.07206272746943328 0.07731363865851923 0.06435259227167739 0.078164488694642 0.05155884200020836 0.08848286758399004 1:1 2:13 3:13 4:4 5:4 6:4 7:6 8:8 9:7 14:2 15:2 16:2 17:5 18:9 19:6 20:4 21:4 22:4 23:4 24:6 25:7 26:5 
-0.1012940349531392 0.1002791637635599 0.07447765831301927 0.1017672827125787 0.07968475094950567 0.09616267593125022 0 0.1023216177300464 0.1081256016387911 0.0980797982909609 0.1638209237218898 0.1015243041082185 0.08141707119084046 0.09103870939096581 0.07526931463417935 0.1019585827875178 0.1080028553552555 0.07644034664754514 0.09910727750389523 0.0854354647027757 0.1035821303698952 0.08544959460269222 0.1017544999063512 0.1043030358963475 0.09392989541488475 0.108490857929297 0.1079892708525658 2:13 3:13 4:6 5:4 6:5 7:7 8:8 9:6 14:2 15:2 16:4 17:5 18:7 19:6 20:4 21:4 22:5 23:5 24:6 25:7 26:5 
-0 0 0 0 0 0 0.1404083642742185 0 0 0 0 0 0 0 0 0 0 0 0 0 0 0 0 0 0 0 0 2:13 3:13 4:4 5:4 6:4 7:6 8:9 9:6 14:2 15:2 16:2 17:6 18:7 19:6 20:4 21:4 22:4 23:4 24:6 25:7 26:5 
-0 0 0 0 0 0 0 0 0 0 0 0 0 0 0 0 0 0 0 0 0 0 0.01128010837250753 0.001946581496438439 0 0 0 2:13 3:13 4:6 5:4 6:4 7:6 8:8 9:6 10:1 14:2 15:3 16:2 17:5 18:7 19:6 20:4 21:4 22:4 23:6 24:6 25:7 26:5 
-0 0 0 0 0 0 0.02865438260185424 0 0 0 0.001793406482559174 0 0 0 0 0 0 0 0 0 0 0 0 0 0 0.01346718210512575 0 1:2 2:13 3:13 4:5 5:4 6:4 7:7 8:9 9:6 10:2 14:2 15:2 16:4 17:6 18:7 19:7 20:6 21:4 22:4 23:5 24:6 25:7 26:5 
-0 0 0 0 0 0 0 0.1679524742024661 0 0 0 0 0 0 0 0 0 0 0 0 0 0 0 0 0 0 0 2:13 3:13 4:4 5:4 6:5 7:6 8:8 9:6 14:2 15:2 16:2 17:5 18:7 19:6 20:4 21:4 22:4 23:4 24:7 25:7 26:5 
-0.03642455440194341 0.0359054797341905 0.02344895442125414 0.03519310100567673 0.0269687220513936 0.03520471632718334 0 0.1333678622323477 0.03919310591385685 0.02783345130533725 0.05703765694770926 0.03444356828363596 0.02706500837338478 0.03091910323354927 0.02511958887347027 0.03553825573835046 0.03823821094335957 0.02646146165048823 0.03537972120001403 0.03013757188502447 0.03757658243380656 0.02824490185292776 0.04312954466063471 0.05055103460690105 0.03062869183889607 0.0557750775390711 0.04254158316589544 2:13 3:13 4:5 5:4 6:4 7:7 8:8 9:6 10:1 14:2 15:3 16:2 17:5 18:7 19:6 20:4 21:6 22:4 23:4 24:6 25:7 26:5 
-0.1882714544306667 0.1848224518134341 0.1368599555988033 0.1881536903619181 0.1472401959566165 0.1773650782780886 0.1375600836971478 0.3175760482021918 0.2012779420226061 0.1872332488566728 0.2279096519015466 0.1879318228212543 0.147714573831567 0.1671212118691461 0.1373172561717418 0.1903333294092022 0.1997793878806476 0.1392600929905822 0.1826580284792946 0.1562321575267192 0.1924571036205943 0.1564721511710475 0.1702147021014132 0.1567782326894049 0.1709811141478407 0.1550477084449769 0.2001174750175941 1:3 2:13 3:13 4:4 5:4 6:5 7:6 8:8 9:6 10:1 14:2 15:2 16:4 17:5 18:8 19:6 20:4 21:4 22:4 23:6 24:6 25:7 26:5 
-0.2880479321343891 0.2829306338136676 0.2203375990410708 0.2882181822640318 0.2239940787037302 0.2703490811812834 0.1144277613514009 0.2523860635483597 0.3073672374531148 0.2915855827360673 0.245845922736728 0.2885563686378841 0.2286438342901938 0.2546595022943451 0.210261325538878 0.2912469125215338 0.3065637387403511 0.2164466897846819 0.2798322862752312 0.2417905362983248 0.2932358974358457 0.2422035925268326 0.2738924543154192 0.2566300913956431 0.2648676570739303 0.2443584584215384 0.3066875177594727 1:4 2:13 3:13 4:5 5:5 6:5 7:6 8:8 9:6 10:1 14:2 15:3 16:2 17:5 18:8 19:7 20:4 21:5 22:4 23:6 24:7 25:8 26:5 
-0 -0 0 0 0 0 0 0 0 0 0 0 0 0 0 0 0.0517202465043104 0 0 0 0 0 0 0 0 0 0 2:7 3:8 4:6 5:4 6:5 7:6 8:4 14:4 15:7 16:5 17:2 18:2 19:2 20:2 21:6 22:6 23:4 
-0 -0 0 0 0 0 0 0 0 0 0 0 0 0 0 0 0.335311047486706 0 0 0 0 0 0 0 0 0 0 1:2 2:6 3:8 4:6 5:4 6:4 7:6 8:4 14:4 15:6 16:5 17:3 18:2 19:3 20:2 21:5 22:6 23:4 
-1 -0.8309587116098871 0.7321582305934909 1 0.7607027932330249 0.9396454406787479 0.8614728687065244 0.7738948540034893 1 1 0.8954804161080073 1 0.7716837328338364 0.8013410600134361 0.7094284302157695 1 1 0.7474411299163327 0.9869259113336114 0.8246132235841318 1 0.8208736756860962 0.9085794419577201 0.8492941671359245 0.9177074435512205 0.7679626861702473 1 1:1 2:7 3:8 4:8 5:6 6:4 7:6 8:4 14:2 15:2 17:4 18:6 19:5 20:2 21:2 22:2 23:2 24:6 25:7 26:4 
-0.2413325904271009 -0.1964663919829114 0.1725446333936148 0.2127900046633207 0.1800058156665917 0.2212173436887413 0.2033717160716546 0.1807135126912489 0.2628965552978962 0.2443083513496885 0.2128376617414831 0.2398734049756234 0.1882637798686678 0.2908285215696101 0.1666211324512287 0.2441091278824938 0 0.1357445598498069 0.2238398214045665 0.192516941080116 0.2455154814885417 0.1940444172132907 0.2110643901810949 0.1984932085033668 0.2162710792089786 0.1817966825457956 0.2604664103795835 2:6 3:9 4:6 5:5 6:5 7:6 8:4 14:1 15:4 16:6 17:5 18:2 19:2 20:2 21:2 22:6 23:6 24:5 
-0.1325972065916693 -0.1080273167341714 0.09466324723868916 0.1500881186590641 0.0988977767907972 0.1232697984761921 0.1121935418546582 0.09814365094389489 0.145508916772537 0.1329992878185711 0.111401514032665 0.1221604575934289 0.09191137549126233 0.09280788419688318 0.09260922439722244 0.1349025341572264 0.2994201542752347 0.1133113795035143 0.1222717424166951 0.1052550066371865 0.1346979964923846 0.1060019489735173 0.1147565971868397 0.1033120109131828 0.1201103310765888 0.09924264051444118 0.1426436956140921 2:6 3:8 4:8 5:4 6:4 7:6 8:4 14:4 15:6 16:5 17:3 18:3 19:2 20:2 21:5 22:6 23:4 
-0.3496431570992297 -0.2789991727960296 0.2466068190044551 0.3947214850169843 0.2537698058636962 0.3162143472627558 0.290146031698608 0.260495692103938 0.3760945450345607 0.3528837510856339 0.3183812630615209 0.3483417012071776 0.2503667189272755 0.7801303732309399 0.2375424147554079 0.3487044235517346 0.3652480195666187 0.3233171724047594 0.3219281478353192 0.2878586696478067 0.3633239757661408 0.2790017592833422 0.3054356460960673 0.285583948813424 0.3079599127227535 0.2612890548717577 0.3776252779423903 1:1 2:6 3:8 4:6 5:4 6:5 7:8 8:6 9:1 14:2 15:4 16:6 17:6 18:3 19:3 20:2 21:4 22:5 23:6 24:4 
-0.4120024802282095 -0.3293373516778626 0.2907596570053453 0.4379721527726889 0.3015310989327645 0.3724670397418973 0.3423978270195645 0.3039499863454265 0.4432255399217648 0.4130669575703386 0.3602670649216863 0.4094049178329248 0.3081268623561624 0.8858743049078268 0.2820380973576636 0.4115769589732461 0.3805162017143483 0.3900269436129002 0.5169457003300869 0.3258849018019687 0.4198405969565054 0.3276333146228525 0.3631711763823054 0.3467123954553544 0.3692664284313262 0.3076941031018461 0.4443274916133713 1:3 2:6 3:8 4:6 5:7 6:5 7:7 8:6 9:1 14:4 15:6 16:6 17:3 18:3 19:3 20:3 21:7 22:6 23:5 24:3 
-0 -0 0 0 0 0 0 0 0 0 0 0 0 0.0107545549650671 0 0 0.349981764500605 0 0.0165460283847419 0 0 0 0 0 0 0 0 1:2 2:6 3:9 4:6 5:5 6:5 7:6 8:4 14:1 15:5 16:6 17:5 18:2 19:2 20:3 21:3 22:5 23:6 24:4 25:1 
-0.2971921097242254 -0.2406898103593269 0.2128797418418023 0.2840615467984082 0.2195642558665625 0.2729962475961772 0.2504287254326851 0.2213877483931597 0.3260740564215091 0.2997177541539394 0.2575169568274784 0.2931738126379437 0.212912552094235 0.2305071383727307 0.2055579935847269 0.3014930788066914 0.3388376256462381 0.1847261019382416 0.2555701898739186 0.2382749032933441 0.3045387233584009 0.2380929627445914 0.2603786737243939 0.2497805270523582 0.2709306223261878 0.2220885702765157 0.31905505378595 2:6 3:8 4:6 5:6 6:4 7:6 8:4 9:2 14:4 15:6 16:5 17:2 18:2 19:2 20:2 21:7 22:7 23:4 24:1 
-0.1539219267083971 -0.1251461629062594 0.1116134471169189 0.1322409080656522 0.1135430958480644 0.1418995578788989 0.1303763723607357 0.1142922909659455 0.1692693284613899 0.1572131071351386 0.1307743608253745 0.1563427807958356 0.1210239281909645 0.01232368369068625 0.1077691056887289 0.1562768131410244 0 0.09249302426240859 0.1357788979138206 0.1237190415984751 0.1616213838981327 0.1226723343579085 0.1376009711907548 0.1241619646842815 0.1403343113878586 0.1148758247316865 0.1674887835695101 2:6 3:8 4:6 5:4 6:4 7:7 8:5 13:1 14:1 15:5 16:6 17:5 18:2 19:2 20:3 21:2 22:5 23:6 24:4 
-0 -0 0 0 0 0 0 0 0 0 0 0 0 0.201042454749219 0 0 0 0 0 0 0 0 0 0 0 0 0 1:1 2:6 3:8 4:7 5:6 6:4 7:7 8:5 14:4 15:7 16:6 17:4 18:2 19:3 20:2 21:5 22:6 23:4 24:1 
-0 -0 0 0 0 0 0 0 0 0 0 0 0 0 0 0 0.1478348703352544 0 0 0 0 0 0 0 0 0 0 1:2 2:7 3:8 4:6 5:4 6:5 7:6 8:4 14:4 15:6 16:5 17:2 18:3 19:3 20:2 21:6 22:7 23:4 
-0.4831217528985421 -0.39170267114553 0.3464956945915221 0.4888176867520969 0.3574492914406702 0.4449895195515499 0.4069479447146561 0.3626337405186934 0.5279227245691776 0.4910813774413563 0.4282592040454818 0.4811076313423382 0.3582563254915297 1 0.3340520901131325 0.4892519196200726 0.6707481329491583 0.3442905127757429 0.5611217029208665 0.3876771519527565 0.4967644683819658 0.3878711775877881 0.4275928347921476 0.409674951382642 0.4354174920810114 0.3629510151373757 0.5240276789528207 1:2 2:7 3:9 4:6 5:5 6:6 7:7 8:5 14:6 15:7 16:5 17:2 18:3 19:2 20:5 21:6 22:6 23:4 24:1 
-0.06750582437409389 -0.05340208698414132 0.04702739291407224 0.07680574618204195 0.04736828311832443 0.0611249916583962 0.05535248744840417 0.04982401833735417 0.07108413732184671 0.07212743890362852 0.06371295925202848 0.09606389925159224 0.04883560114809193 0 0.04521631802931133 0.0664697015140511 0.03591699886843736 0.07657481425701479 0.04015359366250531 0.05566934508334352 0.0704799875550382 0.05244412612389607 0.06033232122798441 0.05407407464818369 0.06227882603481467 0.05077003910552294 0.0806995776648446 2:6 3:8 4:6 5:5 6:4 7:6 8:5 9:2 14:4 15:6 16:6 17:4 18:2 19:2 20:2 21:6 22:6 23:4 
-0.4664513116073601 -0.3767055127291059 0.3330373756048962 0.5389519924422267 0.3475737836240013 0.4284177968220161 0.3927762076989368 0.3483418561016975 0.5091879318745001 0.4729801171594565 0.4071708341355453 0.465596903597099 0.3489317676047931 0.9712624741479833 0.3218460856243059 0.4719725777437461 0.5924276852555658 0.376746882911031 0.4661079468823154 0.374510506527544 0.4803476937848736 0.3738278097882424 0.4116994202431887 0.3868670495388487 0.419861994639195 0.349670219019578 0.5040984498143923 2:6 3:8 4:8 5:7 6:4 7:6 8:4 14:1 15:4 16:6 17:5 18:2 19:3 20:4 21:3 22:5 23:6 24:4 
-0.2132844258377021 -0.1723160906663716 0.1517005380612306 0.2253079150884038 0.1580773894465046 0.194313545000512 0.1795767330701173 0.1582782389124452 0.232047979297826 0.2219493713711828 0.1882488447688485 0.2203469448924592 0.1608254982352186 0.1806571458934606 0.1476196924393864 0.2147884182549054 0 0.1455150488278926 0.230499659388862 0.1703735794588711 0.2173824477958198 0.1709011658260175 0.1864816765512647 0.164309749246919 0.1940671440815751 0.1583906484999608 0.2315994694293501 1:1 2:7 3:8 4:6 5:4 6:4 7:6 8:5 9:1 14:5 15:8 16:5 17:2 18:3 19:2 20:2 21:5 22:6 23:4 
-0 -0 0 0 0 0 0 0 0 0 0 0.003550061162372874 0 0 0 0 0.01276368291044633 0.0147995399546279 0 0 0 0 0 0.005658264860114309 0 0 0 2:6 3:8 4:7 5:4 6:4 7:6 8:5 9:1 14:4 15:6 16:5 17:2 18:2 19:2 20:4 21:6 22:6 23:4 
-0.06473402221287682 -0.05302204760578251 0.0458312055675275 0.04826045156357695 0.0487236259404578 0.06088727533156356 0.05445547145822677 0.05138882681340892 0.07004508845973527 0.06584249161275162 0.06221159106438265 0.06245028540133236 0.05403438880526523 0 0.04416652144848479 0.06535256855741745 0.06174266064945477 0 0.06536526056749224 0.0489306464698922 0.06371274716821877 0.0523435383828137 0.05529094322492494 0.04891340836527758 0.04608166896956462 0.04910807437971222 0.0673425924439837 2:7 3:9 4:6 5:4 6:4 7:6 8:4 14:4 15:6 16:5 17:2 18:2 19:2 20:2 21:5 22:7 23:5 
-0 -0 0 0 0 0 0 0 0 0 0 0 0 0.2646203349739189 0 0 0 0 0 0 0 0 0 0 0 0 0 2:6 3:9 4:6 5:4 6:5 7:7 8:4 14:5 15:6 16:6 17:3 18:2 19:2 20:2 21:5 22:6 23:4 
-0 -0 0 0 0 0 0 0 0 0 0 0 0 0 0 0 0.4704548249410144 0 0 0 0 0 0 0 0 0 0 1:1 2:6 3:8 4:6 5:4 6:5 7:6 8:4 14:1 15:4 16:6 17:5 18:3 19:2 20:2 21:2 22:5 23:6 24:4 
-0.01943238952146254 -0.01647606154754304 0.01521912376091104 0.002466682070973735 0.01721672831995172 0.01669146496627895 0.0164704229514136 0.0141531266226999 0.02302175504965187 0.01750286294677978 0.01040381174758681 0.01270945266065112 0.05124476446682931 0 0.01461532530624701 0.02141914171561318 0 0.01075812446344021 0 0.0183051419703647 0.02417458594202845 0.01628729935146496 0.01965375662658003 0.01374388312298379 0.02340372332441508 0.01587188914488512 0.02151784963438018 2:6 3:9 4:6 5:4 6:4 7:6 8:4 14:5 15:6 16:5 17:2 18:2 19:2 20:2 21:5 22:6 23:4 
-0.3683242179758993 -0.2987747174543732 0.2642813599741348 0.3961272719743152 0.2769619030574411 0.3387148118809062 0.3114845511585154 0.276498820485812 0.4034627199806879 0.3743529662562466 0.3266996376910966 0.3676825804853797 0.2768875664691841 0.4961651445667201 0.255914628942861 0.373097182571566 0.3313051135389893 0.2787142047110031 0.3823885386699522 0.2979269687553767 0.3806059586547065 0.2965294249577417 0.3285838734423128 0.3217757117369016 0.3339129261785598 0.2773473182047162 0.3984498230876523 1:1 2:7 3:9 4:8 5:5 6:5 7:6 8:4 10:1 14:4 15:7 16:6 17:2 18:2 19:4 20:2 21:5 22:6 23:5 24:1 26:2 
-0.2896911283814041 -0.236455450101506 0.2086080061244207 0.2867901384950098 0.2185277893829922 0.2680720946326889 0.2457151457232846 0.2191586456169575 0.3193788360430503 0.2968505361509222 0.2539269660066643 0.2897739150591648 0.2320761738661387 0.3352190696641382 0.2026195511271494 0.2962039134296021 0.3673509792947237 0.1922794858420884 0.3204275753722041 0.2332272477152337 0.2964807448319248 0.2339051219706355 0.2560760223981947 0.2381253054099989 0.2625963076704682 0.2177560035810887 0.3139838380600474 1:1 2:7 3:8 4:7 5:4 6:6 7:6 8:4 14:1 15:4 16:7 17:6 18:3 19:2 20:2 21:3 22:5 23:6 24:4 
-0 -0 0 0 0 0 0 0 0 0 0 0 0 0.06075664407858344 0 0 0.2650995398537978 0 0 0 0 0 0 0 0 0 0 1:2 2:6 3:8 4:6 5:5 6:5 7:7 8:4 14:4 15:6 16:7 17:3 18:3 19:2 20:3 21:5 22:6 23:4 
-0.06294180711291536 -0.05181938512979222 -0.06072407417123377 0.06209354136740029 0.04973997073816561 0.02719731825728623 0.05208219641646703 0.05012306958160782 0.06723309377419109 0.06818722304129574 0.05703540507682987 0.04985682899909162 0.0506475125197982 0.05700425691241874 0.04680212364288106 0.06382406439698614 0.06583652478008924 0.04824723297420765 0.06223464914640851 0.05264576669196218 0.06407146964565906 0.05299143801776958 0.06263414227794312 0.05165027718569976 0.05778183695458606 0.03665275095022698 0.04219237203123741 2:6 3:8 4:6 5:5 6:5 7:4 8:13 9:13 14:2 15:2 16:2 17:5 18:7 19:8 20:4 21:4 22:4 23:4 24:6 25:7 26:5 
-0.1174389111008544 -0.1065668565405684 -0.1138818960386311 0.1161570477055029 0.09322478625187591 0.1189958141876435 0.1163757827097041 0.09339430832035349 0.1227723657183154 0.1214068579429695 0.1047627022393606 0.1294412590472358 0.09350981195114369 0.1031321471257318 0.08770690930432018 0.1162900940043488 0.12222016947284 0.08920800192838037 0.1116161499864918 0.09816606595176639 0.1166945168299975 0.09831919457034188 0.1106353234600998 0.1012566420424221 0.106863506382252 0.1034039526489099 0.1297401419589702 1:1 2:7 3:8 4:6 5:4 6:4 7:6 8:13 9:13 14:3 15:3 16:2 17:5 18:8 19:6 20:4 21:4 22:5 23:4 24:6 25:7 26:5 
-0.09276712347019936 -0.07738816681224259 -0.09152404499638132 0.09172183885530005 0.07277518474232271 0.1921991718124586 0.06974165205843347 0.07375990924088859 0.09788606864572 0.0924609796719128 0.08438068906442335 0.123808510964508 0.07543375490793039 0.08377509758500674 0.06930145255831446 0.09296936205652875 0.09796056488008699 0.07082482534685904 0.09064029982642691 0.0805135252463597 0.09817091927705848 0.07915486759969971 0.09416733344781887 0.08411768857449162 0.08527237808872566 0.1319254200558885 0.1562045107090562 2:6 3:9 4:6 5:4 6:4 7:6 8:13 9:13 14:2 15:3 16:3 17:5 18:7 19:6 20:4 21:4 22:4 23:4 24:6 25:7 26:6 
-0.5467333536174029 -0.4831624882297162 -0.5384869009138096 0.5460700967710007 0.4370617096203268 0.5656232748860161 0.5057926019585464 0.4401367800743451 0.5801839568987316 0.5539259097097257 0.4969018574847308 0.5503125958486786 0.443319576276946 0.4931803227274659 0.4137713347078952 0.5519941407120096 0.5767767075910679 0.4204372503368224 0.5338932582753978 0.464813988708958 0.5556494584475307 0.467343411252504 0.5000261507693362 0.4732801320243369 0.5062024359421374 0.4601978340768033 0.5663703565743624 1:2 2:7 3:11 4:7 5:4 6:4 7:4 8:13 9:13 10:1 14:2 15:2 16:4 17:6 18:7 19:6 20:5 21:4 22:4 23:5 24:7 25:8 26:6 
-0.2043310597468113 -0.1778914201464072 -0.2018238623567433 0.2043337032478884 0.1643934575028828 0.1784553208773977 0.1867367710431173 0.1645894622406823 0.2175664101751891 0.2108918659171927 0.1865619861154093 0.1954206802189894 0.1661596905882228 0.1862319805536318 0.1557237348869658 0.207843658004738 0.2163339634537739 0.1578654616412803 0.2004832881803453 0.1740024007525264 0.2089357805236358 0.1756545208647721 0.1844104010701661 0.1760235233765567 0.1899371628252878 0.1541543057133837 0.2132316781035274 1:2 2:7 3:8 4:6 5:4 6:4 7:5 8:13 9:13 10:2 14:2 15:2 16:2 17:5 18:8 19:6 20:5 21:7 22:4 23:4 24:6 25:8 26:5 
-0.3303433339224881 -0.2838620224420845 -0.3265251417477122 0.3307077765266603 0.2645971210606737 0.2939827043027934 0.2899481088770973 0.2667140911147307 0.3505615663437906 0.3335624000746856 0.300683460435241 0.3219958819365026 0.2682497306399791 0.2978458898135984 0.250366441764407 0.3333358257513262 0.3495818949404148 0.2544295148370845 0.3233821402043579 0.2813362368681401 0.336716188680542 0.2828668380549659 0.2999116425652693 0.2856148829229215 0.3068952642051032 0.2515753007349534 0.3361200160893755 2:6 3:8 4:6 5:5 6:4 7:4 8:13 9:13 10:4 14:2 15:2 16:2 17:5 18:8 19:8 20:4 21:5 22:4 23:4 24:6 25:8 26:5 
-0.06997240184786466 -0.06006583095932938 -0.07104242309359514 0.07221982634110036 0.05807666036172045 0.006378614105413959 0.07471209992353303 0.05860147818479054 0.07545384122086256 0.06928675993152592 0.06466046477378937 0.05544923608504818 0.05720406606000698 0.06501463701013126 0.05548446957537647 0.07250993410357684 0.07583394187568537 0.05439266977633207 0.0697665072774626 0.06022351444987301 0.07138361174825897 0.06164079507235817 0.05550143839324562 0.05872031179918968 0.06686297848916489 0.009380539045539569 0.02612072072964381 2:6 3:9 4:6 5:4 6:4 7:5 8:13 9:13 14:2 15:2 16:2 17:7 18:7 19:6 20:4 21:4 22:4 23:4 24:6 25:7 26:5 
-0.4517423142795465 -0.3845062125449262 -0.4426635747602665 0.4492661987816121 0.3600041640439784 0.4405084449047295 0.3907846395380628 0.3624891971318933 0.4762549160345147 0.4527613099203016 0.4086314982161624 0.4659197706191716 0.3645256939884251 0.4052730686854493 0.3408338544936846 0.4528869711076036 0.4744557924636915 0.3460761624533894 0.4385692377734341 0.3830216038866069 0.4587038759026604 0.3845861291185139 0.4126148913615931 0.394133062069381 0.416111954080009 0.3987232186389597 0.5370554832771612 2:6 3:8 4:7 5:6 6:5 7:4 8:13 9:13 14:2 15:2 16:2 17:5 18:7 19:6 20:6 21:6 22:4 23:4 24:6 25:7 26:5 
-0.3966898669498668 -0.3407121538391162 -0.390499084736654 0.3958274572635172 0.3178746265333896 0.3537364133372204 0.3440381199359787 0.3199486518318822 0.4204046331728699 0.400071523518896 0.3602837201642623 0.3875065174641413 0.3211352151994956 0.357579294089643 0.3007467486901695 0.4003885271798195 0.4191532514082462 0.305334615022819 0.387397266134147 0.3376194226842527 0.4034039328191773 0.3391758124991122 0.3622532065747443 0.3431855300944538 0.3669401920840779 0.3150799880877864 0.4172150739350879 1:1 2:6 3:9 4:6 5:6 6:5 7:5 8:13 9:13 10:2 13:2 14:2 15:3 16:2 17:5 18:8 19:7 20:4 21:4 22:5 23:5 24:9 25:8 26:6 
-0.3570334784280788 -0.3055539868753666 -0.3505296852433608 0.3555613646581559 0.2844131831041867 0.341095474952191 0.3144399104657576 0.2864118339912807 0.3780366555173405 0.360171291861843 0.3235016466748631 0.3617853223997714 0.2883869504061852 0.3214314079683356 0.2696760451297977 0.3600771717788046 0.3763426745628006 0.2743271002242834 0.3485211157674593 0.3031296074720598 0.3623053727221696 0.3048360478797206 0.3243245874798457 0.307695110418587 0.3300349213374481 0.2792794013232623 0.3653677654797266 2:7 3:8 4:8 5:4 6:4 7:5 8:13 9:13 10:2 14:2 15:2 16:2 17:5 18:9 19:6 20:4 21:4 22:5 23:7 24:6 25:7 26:5 
-0.5835750278176834 -0.4967154330416739 -0.5727586020065884 0.5819495887246829 0.4655977617800648 0.5741617561011845 0.5143170747271236 0.4684265499574456 0.6176531579253631 0.5889555649440803 0.5294318898504922 0.5997473898172377 0.4720698888145004 0.5257381414117623 0.4406130564772559 0.5875063791145806 0.6151052666036968 0.4476300314893632 0.5688728666498507 0.4946896431768842 0.5932869347182705 0.4979725984488734 0.5311403861212221 0.5040585693222849 0.5388134185861645 0.470391413771403 0.6148479130342669 1:1 2:6 3:8 4:6 5:4 6:4 7:4 8:13 9:13 10:3 11:1 12:2 13:2 14:2 15:3 16:2 17:5 18:8 19:6 20:4 21:5 22:7 23:6 24:7 25:7 26:5 
-0.117396161236664 -0.0967703503024769 -0.1129671827280559 0.11533441282376 0.09214332845501395 0.1513020796204347 0.1037555225920936 0.09276703479473121 0.1220141309881798 0.1171304305703912 0.1048950350632876 0.136743537945249 0.09361511431390386 0.1039709981267846 0.08698045779797642 0.1156201756572015 0.1214257965450608 0.0894577352019974 0.112355840352259 0.0984754300731247 0.1176316695677754 0.09868990458351835 0.1097178707087836 0.1023688362155538 0.1057896317143828 0.1373262773506271 0.1758179729312018 2:6 3:9 4:6 5:4 6:5 7:5 8:13 9:13 10:3 14:2 15:3 16:3 17:7 18:7 19:7 20:5 21:4 22:4 23:4 24:6 25:7 26:5 
-0.267494850552911 -0.2122581815707646 -0.2173128825815483 -0.1883084414264908 0.1942088358987892 0.2415022428645902 0.219297616170462 0.1961457620077048 0.2847183239522566 0.266530245100388 0.2290328007896016 0.2620551693750995 0.197762468839559 0.1443703287236983 0.1804788267354111 0.2663625086225498 0.2718886771262674 0.150808284244092 0.2525906330501973 0.2108752016573753 0.2716563802042251 0.2125824135287804 0.2484886953194792 0.228552268884074 0.2357634026275601 0.1979130711160934 0.287160971724043 1:1 2:6 3:8 4:8 5:6 6:7 7:8 8:5 9:3 14:2 15:4 16:6 17:5 18:4 19:8 20:9 21:2 22:3 23:5 24:4 
-0.7487318297905162 -0.3590140733402267 -0.4298291926897762 -0.3150130879903684 0.3269957668225931 0.4075169382008171 0.3722304928631285 0.3303730620122 0.4807793362667187 0.450252648745801 0.3979502806520288 0.4455825004669713 0.3334063673845577 0.3909499813656462 0.3055013002439336 0.4477586783709925 0.4790062991583905 0.2998939892154859 0.4309713776759035 0.354679684840177 0.4535499673885812 0.3570820553105952 0.3899339754837274 0.3643734139838272 0.3980071114193676 0.3353028688462165 0.4812943566332383 1:1 2:7 3:8 4:8 5:6 6:8 7:8 8:7 9:6 10:1 14:4 15:6 16:5 17:5 18:8 19:8 20:3 21:6 22:9 23:5 24:1 
-0.07261449512022852 -0.06558676605193907 -0.07481195528410792 -0.05738847521025539 0.05939737128557831 0.07449652371027592 0.06809879366501646 0.06067773213006444 0.08713706848543856 0.07895730412285974 0.06730061308010933 0.07629312908385844 0.05969368718771106 0.1230833766524524 0.0557843822946183 0.08179162446398826 0.08643234951434564 0.1262369872281255 0.07812107571885769 0.06525121554330608 0.08584253541697173 0.06782054679441629 0.08135085450557415 0.07583548192578471 0.07300303819331847 0.07216518992074443 0.102048074714234 1:1 2:6 3:8 4:8 5:9 6:7 7:8 8:7 9:5 14:1 15:4 16:6 17:6 18:5 19:8 20:8 21:5 22:5 23:6 24:4 25:1 
-0 -0 -0.007586721089905287 -0 0 0 0 0 0 0 0 0 0 0.1556245875179772 0 0 0 0 0 0 0 0 0 0 0 0 0 2:6 3:9 4:8 5:7 6:6 7:8 8:7 9:3 14:1 15:4 16:6 17:5 18:4 19:8 20:8 21:2 22:5 23:6 24:5 
-0.5717324316700064 -0.449496788050758 -0.5473724482810851 -0.3973452783933448 0.4109399940414821 0.5116751505742947 0.4673875746435166 0.4145931011400604 0.6036004550166454 0.5653073191854087 0.4934260488483811 0.5583264128616535 0.4183600554021777 0.4903350739337675 0.3839896791030429 0.5619871277848959 0.5990292892814517 0.3723710136282524 0.5432274955600869 0.4452425195996708 0.570973057564019 0.4432114479213143 0.515145931143704 0.487933225681199 0.4989039022347866 0.4528563283475111 0.6058892898415912 2:6 3:10 4:9 5:9 6:6 7:7 8:9 9:4 14:1 15:6 16:6 17:6 18:4 19:8 20:8 21:4 22:5 23:6 24:5 25:1 
-0.3788482289965292 -0.2350163168867243 -0.2743601436821627 -0.2073616478218841 0.2152541997034801 0.2677425982090594 0.2448161292180163 0.216976510753764 0.3162036659930918 0.3016073639854262 0.2599228808507192 0.2917036498762254 0.2199540002938709 0.1929505698530561 0.2015292123610488 0.2957051206251319 0.3097024277834526 0.1878035256734517 0.2860932184683833 0.2324461811447641 0.2985351119886372 0.2318980986441467 0.2682657835534941 0.2411122120170753 0.2615272428760215 0.2226087903010603 0.3170538230897915 1:2 2:6 3:9 4:8 5:6 6:6 7:8 8:8 9:4 14:6 15:7 16:5 17:4 18:8 19:9 20:4 21:4 22:6 23:4 
-0 -0 -0 -0 0 0 0 0 0 0 0 0 0 0 0 0 0 0.05406826068132904 0 0 0 0 0 0 0 0 0 1:2 2:6 3:8 4:8 5:6 6:6 7:7 8:5 9:3 14:4 15:6 16:5 17:5 18:8 19:8 20:3 21:3 22:5 23:4 
-0.4022959426668659 -0.2487436110167212 -0.3001741370040254 -0.2176306809656605 0.2271576595410101 0.281604184778306 0.2585844667089196 0.2288769558737402 0.3329151867112428 0.3107296625625724 0.2701159352402995 0.3125009761319024 0.2319454228252103 0.2459365700580549 0.2111694627300825 0.3105973683116876 0.3325954926564061 0.1783234147152522 0.2952104832108133 0.2464854743553222 0.3115858634679442 0.2436132740778954 0.2516282784032027 0.2351451110405602 0.2748284948755619 0.2109310376208048 0.3186879521748501 2:7 3:8 4:9 5:9 6:6 7:7 8:8 9:5 14:1 15:4 16:7 17:5 18:5 19:8 20:8 21:4 22:6 23:7 24:4 
-0 -0 -0 -0 0 0 0 0 0 0 0 0 0 0 0 0 0 0.002742834183611753 0 0 0 0 0 0 0 0 0 2:6 3:8 4:8 5:7 6:7 7:7 8:5 9:3 14:1 15:4 16:6 17:5 18:4 19:8 20:8 21:2 22:3 23:5 24:4 25:1 
-0.2731687586765775 -0.1897023810283535 -0.2244045357561119 -0.1666911011930075 0.1733062552177997 0.2147275338294913 0.1971447481004404 0.1751236883432267 0.2536803681496676 0.2354658469838077 0.2013293268974199 0.2336994086275986 0.1751411271123666 0.2781950516436323 0.1610871085272153 0.2356221562749121 0.2467479702999191 0.1878606411483969 0.2308989540338054 0.1877627433348377 0.2413778945613347 0.1866033852063376 0.2137228657682611 0.1972236051247695 0.2111657905193374 0.1756446852854263 0.2557598636571621 2:6 3:8 4:9 5:7 6:7 7:7 8:8 9:3 14:5 15:6 16:5 17:4 18:8 19:8 20:5 21:3 22:6 23:5 
-0 -0 -0.01089282997473912 -0 0 0 0 0 0 0 0 0 0 0 0 0 0.01063874522160559 0.1111199539223695 0 0 0 0 0 0 0 0 0 1:2 2:6 3:8 4:8 5:6 6:7 7:7 8:5 9:3 14:1 15:4 16:6 17:5 18:4 19:8 20:9 21:3 22:3 23:5 24:4 
-0.1577883624195751 -0.1523850064715497 -0.2197173769165438 -0.1339680151430129 0.1400950426527913 0.1729095571809822 0.1574809377216387 0.1432959636276326 0.2037883174850566 0.1915374403302415 0.164541126841886 0.1862110099169674 0.1414634303517836 0.2657826180196345 0.129681236112098 0.1896851058887818 0.2132700026701665 0.2478800363794034 0.1892139165814582 0.1529582241800689 0.1929961445729686 0.1507618587681147 0.1734046763500012 0.1568657269555386 0.1692411115385057 0.1431799260705989 0.2044378721908449 1:1 2:6 3:8 4:9 5:6 6:7 7:8 8:5 9:3 14:4 15:6 16:5 17:6 18:8 19:8 20:2 21:3 22:5 23:4 24:2 
-0.4206197592573713 -0.07622747450351534 -0.09511089711247457 -0.06745716558475118 0.06962197280279747 0.08748866058327738 0.07820246053865 0.06965171530004105 0.1014089640038914 0.1035267205133431 0.08995709954790704 0.1119340468164179 0.07028503739937037 0 0.06439978784204123 0.09642776926239018 0.09584058559336452 0.08388256907264917 0.08888648692890855 0.07625389192372079 0.1009342838801816 0.07356476630775324 0.08761332265971188 0.07531887058522326 0.08402567402974136 0.08077246805335388 0.1178147654137549 2:6 3:8 4:8 5:6 6:7 7:7 8:7 9:6 14:1 15:4 16:6 17:6 18:4 19:8 20:8 21:3 22:5 23:6 24:4 
-0.346475529861691 -0.304048989997194 -0.3729661027444471 -0.2675343215906346 0.2781972389614326 0.3447817399883948 0.31595139817513 0.2818940131138363 0.4078344806397855 0.3827606592501658 0.3337647258614034 0.3750787893764992 0.282930651089446 0.3742981283531508 0.2593981810684748 0.381303364249634 0.4043637755570843 0.2214412372664017 0.3826869366397865 0.3008487781872287 0.3831013704324526 0.2992649270369597 0.328811013024708 0.3062339540261443 0.3371778994234582 0.2767131578653436 0.3975756972553137 1:2 2:8 3:8 4:8 5:7 6:7 7:7 8:5 9:3 14:1 15:4 16:7 17:5 18:4 19:9 20:8 21:4 22:3 23:6 24:4 
-0.163486904015526 -0.1250896454855507 -0.1003599150277309 -0.1122380668990906 0.1148317881421517 0.1430951634198769 0.1302462849939173 0.1144965230917054 0.1685150795727239 0.1568203233185504 0.1296405395176885 0.156556440793029 0.1162213157772075 0 0.1073343018048342 0.1590057863922827 0.17001506491387 0.1310741808441973 0.139672553449341 0.1249011731663528 0.1594231687133745 0.1219215866718675 0.1331941094587548 0.1241699120258211 0.1387501559243615 0.1164378906075579 0.168741251061627 2:6 3:8 4:8 5:6 6:6 7:7 8:5 9:3 10:1 14:4 15:6 16:5 17:4 18:9 19:8 20:2 21:3 22:5 23:4 
-0.6843813254440103 -0.4056987980105957 -0.4774653712193567 -0.3584095663244129 0.3716434884119367 0.4618582595506888 0.4224819766510859 0.3741026650664756 0.5442219091949702 0.5104611729227244 0.4388259862356094 0.5063573791625413 0.3769781945094415 0.3757413862788776 0.3458785345412311 0.510013402168375 0.5354150649255748 0.3365236236544481 0.4818114895039109 0.4016451588135062 0.5133433075591602 0.3991103146805665 0.4396266328316032 0.4085786247919704 0.4495508350490372 0.3744623983430629 0.5410858744911244 1:1 2:7 3:8 4:8 5:8 6:6 7:7 8:7 9:7 14:4 15:7 16:6 17:5 18:8 19:9 20:2 21:6 22:8 23:4 
-0.2394460518040775 -0.2202595136347474 -0.2652352951332224 -0.1945733355569525 0.2006673764207165 0.2503568548234789 0.2294424819294478 0.2018179278777476 0.2952743820727133 0.2746508606264091 0.2378391188300468 0.2724528368126035 0.204478996021121 0.2973777234209182 0.1870955684320065 0.2756989774224883 0.2969334916098192 0.195019985433341 0.2739193734870724 0.2178203148481898 0.2782405061478138 0.2180624882289167 0.2363871400289202 0.2232385079228577 0.243803486367461 0.2025506308562096 0.2910140067128854 1:2 2:6 3:9 4:9 5:7 6:8 7:7 8:5 9:3 14:5 15:6 16:7 17:5 18:8 19:8 20:4 21:3 22:5 23:4 24:1 
-0.09479324382283075 -0.07675565839489568 -0.06483832610970455 -0.06704788504443068 0.06953079803602502 0.08706277560511717 0.08115804764269982 0.06749409291864071 0.1031937823089846 0.09448066318197917 0.0813129078659961 0.0961043696351308 0.07180256885598994 0 0.06534297835446896 0.09516961566873765 0.09711540288770502 0 0.08055608613000284 0.07517148195326369 0.09827202162919306 0.07610484576703329 0.07401800431873168 0.07327149570761105 0.08514462558864323 0.06826280351098964 0.09943921404051889 2:6 3:8 4:9 5:6 6:6 7:8 8:5 9:3 14:4 15:6 16:5 17:6 18:8 19:8 20:2 21:3 22:5 23:4 
-0.1220036114463269 -0.1196276913626568 -0.1396971876463128 -0.1058570688569212 0.1094390638094132 0.1366073982874023 0.1257018966743104 0.1096167942837811 0.160447996971814 0.1485669504674883 0.1334401979126037 0.1408267478135281 0.1107262113324392 0.1274351562022606 0.1020454229225149 0.1490767508255067 0.1569206996871886 0.08375709384910782 0.1377420813141199 0.1170839487388431 0.1486401041440573 0.119526208038691 0.1393719666698355 0.1317964346174222 0.1324556750798359 0.117036421770773 0.1614287962006288 2:7 3:8 4:8 5:6 6:8 7:7 8:7 9:5 10:1 14:1 15:4 16:7 17:5 18:4 19:8 20:9 21:4 22:5 23:6 24:4 
-0.1439588729927338 -0.1252747096046221 -0.2329817817208101 -0.10967980674639 0.1149168177774127 0.1413383361229679 0.1299150152802767 0.118229244088062 0.1674274749318829 0.1585341340006098 0.1441312882494649 0.1533484365874904 0.1158732175300687 0.2888281916166325 0.106058996586437 0.1552835975266441 0.1811512512868534 0.04591687703422671 0.1625068044934705 0.1239203363644544 0.1565782608380282 0.1246031140488459 0.1423370949211337 0.1297557747990479 0.1376049330605812 0.1135768809671097 0.1628105543072285 2:7 3:9 4:8 5:6 6:6 7:7 8:5 9:3 14:4 15:7 16:5 17:4 18:8 19:8 20:2 21:3 22:5 23:5 
-0.1363343614655164 -0.1316319687967601 -0.2059419457188117 -0.1139354209436594 0.1195958467152286 0.1483958562078822 0.1376331836120679 0.1197905995291874 0.1765921148711658 0.1607586310168214 0.1338583867532622 0.1621277920221503 0.1201263125278351 0.2331284444827702 0.1110915738871159 0.1594893007142475 0.2048519958724031 0.1267693168830421 0.1556814276099805 0.1300401259349199 0.1647167594353391 0.1275311177773038 0.1292073196569198 0.123360571770775 0.1464927447957682 0.1168836043238658 0.1739838668219941 2:6 3:8 4:8 5:6 6:8 7:7 8:5 9:3 14:1 15:4 16:6 17:6 18:4 19:8 20:8 21:2 22:3 23:5 24:4 
-0.03467290046052914 -0.09828970215426658 -0.09199660863564088 -0.08730187264971413 0.09045150761735853 0.1118485123705548 0.1019406467716842 0.09322052591100735 0.1326388465469787 0.1248862452151564 0.1109119418003797 0.1171612479947404 0.0938731987235541 0.114908340639886 0.08433293289716247 0.1276532449361982 0.1243321395388873 0.03275594548951363 0.1223346118819045 0.09835867204299806 0.1235028500162678 0.09899078641209694 0.1107460743049518 0.1024546958878134 0.1091909165091066 0.08881313712593138 0.1235535910724295 2:6 3:9 4:8 5:6 6:8 7:7 8:5 9:4 10:1 14:1 15:5 16:6 17:6 18:5 19:8 20:8 21:2 22:4 23:5 24:4 
-0.07455363754514331 -0.1078128625207882 -0.1494232436852021 -0.09447332010688135 0.09946574398624565 0.122958621631194 0.1122457471280853 0.1007102944439508 0.1461163290379744 0.137490784543514 0.1178524046998681 0.1320775592067023 0.1024680194846038 0.1917925326004202 0.09308377256699599 0.1358349147314979 0.163740770863384 0.1473745927432292 0.1309999280111483 0.1071441195682846 0.1374706797793035 0.1064149572256599 0.119601763087566 0.1112379080811561 0.1255389657868274 0.1010346514278911 0.1432380031406219 2:6 3:8 4:8 5:8 6:7 7:7 8:5 9:3 14:4 15:6 16:6 17:4 18:8 19:8 20:2 21:5 22:5 23:4 
-0 -0.01978139225503649 -0.06489246620507876 -0.01762959341577536 0.01747788091312282 0.02196221120743386 0.02052302131064041 0.01719970775626846 0.02569388569540683 0.02174097015671029 0.01949703751505592 0.02427325441630288 0.01736060196307943 0.1537261415883113 0.01580544508706596 0.02370889881757428 0.02453850198709188 0.02493153612245521 0.02290411075887526 0.02067577119300725 0.02473220967845017 0.02053095007747247 0.01861349524539145 0.01981832289994895 0.01937427751419697 0.01603591709173572 0.03007756309413432 2:6 3:8 4:8 5:6 6:7 7:8 8:7 9:3 14:4 15:6 16:5 17:4 18:8 19:8 20:2 21:6 22:6 23:4 
-0.0245876154274263 -0.04645685853956771 -0.108030736325965 -0.04139870120294267 0.04251698511037563 0.05234537681186544 0.04958327654452926 0.04222110952122953 0.06214371273345142 0.05793870503098879 0.04871575954140103 0.05644253364220616 0.04359927224336859 0.05876824200879451 0.04018882072507477 0.0575535425841328 0.06734274058860859 0.1161227991616074 0.05214645162025075 0.04619535406479852 0.06205042097583154 0.04511744723238328 0.04955820835308319 0.04179650947774849 0.05154132939587399 0.03774073416390333 0.06097044301742727 2:6 3:8 4:8 5:7 6:6 7:8 8:5 9:3 14:1 15:4 16:6 17:5 18:5 19:8 20:8 21:2 22:3 23:5 24:4 
-0 -0 -0 -0 -0 0 0 0 0 0 0 0 0.07092722710273859 0 0 0 0 0 0 0 0 0 0 0 0 0 0 1:5 2:12 3:13 4:4 5:5 6:2 14:4 15:6 16:4 17:5 18:5 19:3 20:2 21:2 22:2 23:2 24:2 25:2 26:2 
-0 -0 -0 -0 -0 0 0 0 0 0 0 0 0.008917091141093963 0 0.01165513062710347 0 0 0 0 0 0 0 0 0 0 0 0 1:4 2:12 3:13 4:6 5:4 6:2 14:4 15:5 16:2 17:5 18:5 19:2 20:2 21:3 22:3 23:4 24:2 25:2 26:2 
-0 -0 -0 -0 -0 0 0 0 0 0 0 0 0 0 0.3092247518885942 0 0 0 0 0 0 0 0 0 0 0 0 1:4 2:12 3:13 4:4 5:4 6:2 14:4 15:5 16:2 17:5 18:5 19:2 20:2 21:2 22:2 23:2 24:2 25:3 26:3 
-0 -0 -0 -0 -0 0 0 0 0 0 0 0 0 0 0.1455856870770479 0 0 0 0 0 0 0 0 0 0 0 0 1:3 2:11 3:13 4:5 5:5 6:2 14:2 15:4 16:5 17:3 18:5 19:5 20:2 21:2 22:2 23:2 24:3 25:2 26:2 
-0.5978106325581759 -0.5091531279976388 -0.5886005545314164 -0.4612413443920446 -0.5968651835318657 0.5616432731062134 0.5251388268366708 0.4814588870477572 0.6348742233510886 0.6039023453757413 0.5421047907148825 0.5984525963569083 0.3941394702371631 0.536941033213288 0.197878600635501 0.6028957425835242 0.6338936666570919 0.4561850959720107 0.5834730731321388 0.5052548753597265 0.6087707494842328 0.5084066233287691 0.5442489420868406 0.5148702340354983 0.5515671847665514 0.478705879954652 0.6306127979333217 1:3 2:13 3:13 4:4 5:4 6:2 7:2 14:6 15:6 16:2 17:5 18:5 19:2 20:2 21:2 22:2 23:3 24:2 25:2 26:2 
-0.7357919124133642 -0.6261166486803745 -0.7277056071306796 -0.5671205038291236 -0.7344588437233873 0.6903748213651622 0.6458529057186752 0.5915514116007397 0.7813798334625669 0.7436289384965571 0.6658561538798391 0.7352101258446789 0.494859825298258 0.6606091572389915 0.3349162947029708 0.7421471043931198 0.7937802340782609 0.5628369845247992 0.7171975850061615 0.6216618944860658 0.7489345069865664 0.6246610211584549 0.6683973340512138 0.6330795942495506 0.6784180858377895 0.5892999206622582 0.7757612923777018 1:3 2:11 3:12 4:6 5:7 6:3 14:2 15:4 16:5 17:3 18:5 19:5 20:3 21:3 22:2 23:3 24:3 25:2 26:2 
-0 -0 -0 -0 -0 0 0 0 0 0 0 0 0 0 0.409711981098732 0 0 0 0 0 0 0 0 0 0 0 0 1:2 2:12 3:13 4:6 5:4 6:2 14:4 15:5 16:2 17:5 18:5 19:2 20:2 21:2 22:2 23:2 24:2 25:3 26:3 
-0.6053006638791141 -0.5151657700234394 -0.5950670775722857 -0.4669591955854314 -0.6042509021143081 0.5685335641753787 0.5317579067988768 0.4841461452234523 0.6433334889877984 0.61234275636544 0.5478598052407002 0.604900538450394 0.4388689939188883 0.5442178066046955 0.4989512556471861 0.6107328823366585 0.6399796483834949 0.4621743985566569 0.5902958164757939 0.5119214166734337 0.61681103510364 0.5148172207267221 0.5507095219825512 0.5212608794372834 0.5587551409226463 0.4854388853211286 0.6390130737894234 1:4 2:12 3:13 4:4 5:4 6:2 12:1 13:3 14:4 15:5 16:2 17:6 18:7 19:4 20:3 21:2 22:2 23:2 24:2 25:2 26:2 
-0.2358455105184499 -0.2000732655179881 -0.2322460139721332 -0.1816902275479397 -0.2364204054612694 0.222315873987829 0.2078776085758345 0.1902532433082263 0.2516292498335359 0.2377094826507756 0.213685357105882 0.2366653844589528 0.06373153511220508 0.2123750831132587 0.44069774569239 0.2384497533616757 0.2476689254730388 0.1798011495335449 0.2304834721082248 0.1997951021289503 0.240413853836621 0.2010510667671487 0.2137021574713227 0.2032583966504122 0.2176345496373377 0.1890121421187581 0.2482287763330605 1:5 2:12 3:13 4:6 5:4 6:2 14:4 15:5 16:2 17:5 18:5 19:3 20:3 21:2 22:3 23:2 24:2 25:4 26:2 
-0 -0 -0 -0 -0 0 0 0 0 0 0 0 0.2769878739952599 0 0.09240195471380024 0 0 0 0 0 0 0 0 0 0 0 0 1:3 2:11 3:12 4:5 5:5 6:2 14:2 15:4 16:5 17:2 18:5 19:5 20:2 21:3 22:2 23:2 24:2 25:2 26:2 
-0.3203889691373186 -0.2735574115019999 -0.3146120074950637 -0.2466648639463983 -0.3191333609719743 0.2999415145077223 0.280376342048578 0.255472798444595 0.3390773097918696 0.3243870481592449 0.289328138716594 0.3200668584241688 0.2772047520236755 0.2876207468516266 0.2078852051921428 0.3229884662251816 0.3405712940464562 0.2438005067476955 0.31222156268747 0.270535910282749 0.3253693162438225 0.2718899249724642 0.2919300813864925 0.2752868183814542 0.2947693168591627 0.256102407043141 0.3386195847087435 1:5 2:12 3:13 4:6 5:4 6:2 14:4 15:5 16:2 17:5 18:5 19:2 20:4 21:3 22:3 23:2 24:3 25:2 26:2 
-0.6638397670401298 -0.5658837880728681 -0.6534443495752016 -0.5112648461017448 -0.6627426546571196 0.6229831798800085 0.5827216722798173 0.5322117813793514 0.7049605873974508 0.671248766894212 0.6009841494331045 0.6639721082432876 0.7276234867915322 0.5967878607043035 0.7244916347953726 0.6694297920754069 0.7076016041825065 0.5055248658357084 0.6478151750791305 0.561289899535896 0.6759103663898548 0.5647470023048536 0.6044246523566805 0.571102754306884 0.6126707399509946 0.5321694046529815 0.7004025485157914 1:2 2:11 3:13 4:5 5:4 6:2 13:2 14:2 15:4 16:5 17:2 18:5 19:5 20:2 21:3 22:3 23:2 24:2 25:2 26:2 
-0.2927320345981164 -0.2490130627993276 -0.2882378262550645 -0.224960972791919 -0.2918402834078169 0.2743368909212398 0.2565073750534261 0.2325206703393137 0.3110061618966215 0.2962069666503832 0.2641513446120696 0.2920592530418837 0.8298356315613396 0.2628282813635346 0.296174414076415 0.2946967489588835 0.3144352582456402 0.2227901883615223 0.2843933908497274 0.2467876547132694 0.2977350810950583 0.2484639287428241 0.2658223456932047 0.2510415527065334 0.2700616930979533 0.2344174858601948 0.3088475220893651 1:2 2:12 3:12 4:4 5:4 6:2 14:4 15:5 16:2 17:5 18:5 19:1 20:2 21:2 22:2 23:2 24:2 25:2 26:2 
-0 -0 -0 -0 -0 -0 0 0 0 0 0 0.1270072446580507 0 0 0 0 0 0 0 0 0 0 0 0 0 0 0 2:8 3:10 4:6 5:4 6:4 7:7 8:13 9:12 14:5 15:7 16:6 17:4 18:4 19:4 20:5 21:6 22:7 23:5 24:2 25:5 26:4 
-0 -0 -0 -0 -0 -0 0 0 0 0 0 0.4770992667103253 0 0 0 0 0 0 0 0 0 0 0 0 0 0 0 2:7 3:9 4:6 5:4 6:4 7:6 8:13 9:12 10:1 14:2 15:5 16:7 17:6 18:4 19:4 20:4 21:4 22:6 23:7 24:5 25:3 26:5 
-0 -0 -0 -0 -0 -0 0 0 0 0 0 0.8960399099771974 0 0 0 0 0 0 0 0 0 0 0 0 0 0 0 2:7 3:9 4:6 5:5 6:4 7:6 8:13 9:12 10:2 14:2 15:6 16:7 17:6 18:4 19:4 20:5 21:5 22:6 23:7 24:5 25:2 26:5 
-0.350243273252336 -0.303032290653951 -0.3632204251272289 -0.2594658347126115 -0.3699435933979085 -0.2797821710943331 0.3108605261035157 0.2826357521410103 0.4002844183312141 0.3725144119247035 0.3198660715174083 0.3178513475188128 0.2852055159792389 0.3257703092500406 0.2621661514372328 0.3751217176353338 0.3968433921463034 0.266963625808776 0.3595926608260487 0.3007725038498544 0.3777068145265339 0.3042396695066839 0.327909728932588 0.2997089198310222 0.3359634700829846 0.2415468717477541 0.3557226975703397 1:2 2:7 3:10 4:6 5:5 6:4 7:6 8:13 9:13 10:1 14:2 15:7 16:7 17:6 18:4 19:5 20:5 21:5 22:6 23:7 24:5 25:2 26:6 
-0 -0 -0 -0 -0 -0 0 0 0 0 0 0.005611496140601229 0 0 0 0 0 0 0 0 0 0 0 0 0 0 0 1:1 2:8 3:10 4:7 5:6 6:6 7:6 8:13 9:12 14:5 15:7 16:6 17:4 18:4 19:4 20:5 21:8 22:7 23:5 24:2 25:5 26:7 
-0.06864942736987417 -0.06297987641898371 -0.0681328684369653 -0.09262242083888961 -0.06951520734023498 -0.05316637427199074 0.05722791335553155 0.0522200804072208 0.0764866832961372 0.06526545330748315 0.05630870640965736 0 0.05297671697007812 0.06109060669904525 0.04858070305489354 0.07051570620594871 0.07545121779585907 0.05080486598772598 0.06778249941853505 0.05780523501117095 0.07198665425753287 0.05750470019676598 0.07816668376265905 0.1092132777547681 0.06297161368650955 0.2351098314040832 0.1005388908317396 1:1 2:9 3:11 4:8 5:5 6:6 7:6 8:13 9:12 10:1 14:5 15:7 16:6 17:4 18:4 19:4 20:5 21:6 22:7 23:5 24:5 25:7 26:7 
-0.2390920797769962 -0.1966640742849967 -0.2315247641407482 -0.1709894577540708 -0.2370662552216944 -0.1792147250289475 0.2031630694325739 0.1799269778160252 0.2547913374427159 0.244105125897704 0.2210597737856913 0.2845088816490217 0.1815017418425579 0.207207000175769 0.166807245506716 0.2393268629890849 0.2536337756630888 0.1706383240126408 0.2292775069257287 0.1915091623219346 0.2423219379957468 0.1939009072351236 0.207864985511582 0.2026856879144296 0.2134430500106 0.1734333365947484 0.260202731903513 1:1 2:9 3:11 4:9 5:6 6:6 7:7 8:13 9:12 10:1 14:5 15:7 16:6 17:5 18:5 19:5 20:6 21:8 22:8 23:5 24:3 25:5 26:7 
-0.4409852153825906 -0.3381726234498252 -0.4019356010839019 -0.2866796251201826 -0.4123567595184621 -0.3096570297878897 0.3488103193995666 0.3139687922325329 0.444894524147994 0.445542409767606 0.3718023113560046 1 0.3154307501346895 0.3601576296345783 0.2909477884609734 0.4153846498117308 0.4417239502834795 0.2974466293490339 0.3981711144951856 0.33220726608132 0.420176372013438 0.3375730914299329 0.3644768537448765 0.3549132225089439 0.3730228391819966 0.3587840207195472 0.5095047798249205 2:8 3:10 4:6 5:4 6:4 7:7 8:13 9:12 14:5 15:7 16:6 17:4 18:4 19:4 20:5 21:6 22:7 23:5 24:2 25:5 26:4 
-0.6789228200253871 -0.5565266443612165 -0.664045112978166 -0.4882593788307507 -0.6761897348717026 -0.5114835650716526 0.5776127563391702 0.5165737361852888 0.7308415665921192 0.6901114004665916 0.5990378274363905 0.7170392014248519 0.5208105619715564 0.5940364132770781 0.4796568768994768 0.6853466884036693 0.7269585878241325 0.4880798281439164 0.6569237071829139 0.5556053040748916 0.694005961957524 0.555913743765223 0.601615803392482 0.5526020722389443 0.6141114969368637 0.5053811159843424 0.7328914175323986 1:4 2:8 3:10 4:9 5:7 6:5 7:7 8:13 9:12 10:1 14:5 15:8 16:8 17:5 18:5 19:4 20:4 21:6 22:7 23:5 24:3 25:8 26:8 
-0.0555310997944228 -0.05237346493446217 -0.06379983933578269 -0.05837622999477044 -0.06247500411193346 -0.04914563574380815 0.06156768594409118 0.0488206972553256 0.0675580239344851 0.08260761074143144 0.0855350419447999 0.3635534985860894 0.04968999843084335 0.05591022977837665 0.04511570251570416 0.06493430667205336 0.06802664247099817 0.04522667493145301 0.06259633966847292 0.05089320671959594 0.06533957810667534 0.05247092689963954 0.06114036751118821 0.06852718894698953 0.0579500007910173 0.08732095547623277 0.01440236899683265 2:8 3:11 4:6 5:4 6:4 7:6 8:13 9:12 10:1 14:5 15:7 16:6 17:4 18:4 19:4 20:4 21:6 22:7 23:5 24:4 25:5 26:4 
-0.2302483039152387 -0.2067129774201106 -0.249096863554033 -0.2864111745701915 -0.2506738294569989 -0.189886991099028 0.2142320098062155 0.1911503678387221 0.2718328234408373 0.2717338483487345 0.2190522668374793 1 0.1922850989935283 0.2208008439619152 0.1773087084067574 0.2539255851566155 0.2698164805927614 0.1812682678095929 0.2426613373445125 0.207632548532592 0.261166101535027 0.2061045254356478 0.2279261164991579 0.2073605877302555 0.2275521635393221 0.2094353503789141 0.2457739604760507 2:7 3:9 4:6 5:4 6:4 7:6 8:13 9:12 10:1 14:2 15:5 16:7 17:6 18:4 19:4 20:4 21:4 22:6 23:7 24:5 25:3 26:5 
-0.006515127538434104 -0.00497824901541457 -0.005093065636515775 -0.0353165792237737 -0.00456186810573826 -0.003084879641305807 0.003155743632972754 0.00420401602030702 0.005200881338000684 0 0 0 0.003713593491775186 0.004080377298918247 0.00337447507061547 0.004603117855101567 0.00438849332519071 0.003632310352791439 0.004068054637100253 0.004515610119234733 0.004775819267840336 0.003011238493712585 0.01153065753564788 0.01560645764853817 0.004479342499446589 0.1298517785152825 0.1011814500703107 2:8 3:10 4:7 5:6 6:6 7:7 8:13 9:12 10:3 14:5 15:7 16:6 17:5 18:4 19:6 20:4 21:7 22:7 23:5 24:4 25:5 26:7 
-0 -0 -0 -0 -0 -0 0 0 0 0 0.002687433186128678 0 0 0 0 0 0 0 0 0 0 0 0 0 0 0 0 2:9 3:10 4:7 5:6 6:5 7:8 8:13 9:12 10:1 14:5 15:7 16:6 17:5 18:4 19:4 20:5 21:8 22:8 23:5 24:2 25:5 26:7 
-0.5334565839106568 -0.4520296566128108 -0.5297520520446829 -0.4683064756721891 -0.5398600740593731 -0.4096477457339973 0.4842922922933837 0.413007087831178 0.5841697976069638 0.5473183762785596 0.4951993225838745 0.327299003579818 0.4162958500673135 0.4755974238948367 0.3833622810336549 0.5482888334011552 0.5816374413603748 0.3912086235313526 0.5256546805206039 0.4410529409463752 0.5531759266711351 0.4444040325570885 0.4787111984186367 0.4431948067327652 0.4912747929244719 0.417751462149476 0.5689841422382306 1:1 2:9 3:11 4:6 5:4 6:4 7:6 8:13 9:13 10:1 14:2 15:5 16:7 17:6 18:4 19:4 20:5 21:5 22:6 23:8 24:6 25:5 26:5 
-0.1075255876107632 -0.09902447867515465 -0.1155013146050777 -0.1070004753399319 -0.117783227163183 -0.08898665190004301 0.1026647742425594 0.08925296589727598 0.1269778082894025 0.110708994415323 0.1012212570198022 0 0.09007665365505568 0.103192371144224 0.08296815255484513 0.1192799925164733 0.1267644092276212 0.08566630531426944 0.1145983331857346 0.1074017358465813 0.1245941702887922 0.0961032246942395 0.1269992331532669 0.1273659363009336 0.1060173132336856 0.130703776070618 0.2621549024912783 2:8 3:10 4:7 5:5 6:4 7:6 8:12 9:12 14:5 15:7 16:6 17:4 18:4 19:4 20:4 21:6 22:6 23:4 24:2 25:5 26:7 
-0 -0 -0 -0 -0 -0 0 0 0 0 0 0.01644047582329963 0 0 0 0 0 0 0 0 0 0 0 0 0 0.03022880487174844 0 1:2 2:8 3:10 4:8 5:5 6:6 7:7 8:13 9:12 14:5 15:7 16:6 17:4 18:4 19:6 20:5 21:7 22:7 23:6 24:2 25:5 26:7 
-0.6493209347907371 -0.53093996470759 -0.6337727291430346 -0.4587664959155902 -0.646002975226889 -0.4885351634016949 0.5515577327461101 0.4933424084216236 0.6979738457955267 0.6584377710566592 0.5749715492840261 0.7201439009074158 0.4967671897446426 0.5678708766215408 0.4578139885245122 0.6539231958267988 0.6945061429653513 0.4666126218717423 0.6277636279117864 0.5264305094402512 0.6622885248640603 0.5308658644512063 0.5751850422520264 0.5355731197498391 0.5859903721069961 0.4588810935206744 0.679779092968318 1:1 2:9 3:10 4:8 5:5 6:6 7:6 8:13 9:12 10:3 11:2 12:2 14:7 15:10 16:6 17:5 18:4 19:6 20:4 21:7 22:7 23:5 24:3 25:6 26:7 
-0.1406544890895222 -0.1134022771898936 -0.1360796459176785 -0.08955777624635593 -0.1386570629252316 -0.1050781760609774 0.1183797358928668 0.1056044839134869 0.1502994243502627 0.1394370132140282 0.1255644144270086 0.167707916589701 0.1070166053996088 0.1221922635647596 0.09816886691823772 0.1398376317352423 0.1481379650468089 0.1001503173699432 0.1349073702179328 0.1121396867014237 0.1408398623129419 0.1136901843334693 0.123557086228891 0.1222325614691375 0.1258290664868534 0.181668748761508 0.1616812811785867 1:1 2:8 3:11 4:7 5:7 6:6 7:6 8:13 9:12 14:6 15:7 16:7 17:6 18:4 19:4 20:5 21:6 22:7 23:5 24:2 25:5 26:7 
-0.3305322280196976 -0.1881793878638352 -0.2234615947366485 -0.1044782121347122 -0.2324117988448189 -0.1744637042510546 0.1951626583910147 0.1753137904811313 0.247952658234769 0.2540646855144915 0.2153824247366505 0.4954952724394149 0.1770726230820457 0.2011703977863266 0.1633722807754763 0.2327203812312519 0.2477874383607102 0.165967041073021 0.224073828694606 0.1871159595513638 0.2362022586474172 0.1891806677088062 0.2092968126625426 0.2020253148878618 0.2083445150612547 0.2612196380975288 0.3688037737565442 2:7 3:9 4:6 5:5 6:4 7:6 8:13 9:12 10:2 14:2 15:6 16:7 17:6 18:4 19:4 20:5 21:5 22:6 23:7 24:5 25:2 26:5 
-0.2663454579896011 -0.2173181776393816 -0.2604152301602246 -0.1854478666784163 -0.2656190082788266 -0.2014795036184753 0.2263077042117665 0.2024418414346784 0.2867184355158951 0.2692460389172821 0.2322425442355706 0.3393630848766762 0.2043084522295533 0.233350998138618 0.1884266622470975 0.2689455702475005 0.285570785555864 0.1916983322380861 0.2574925336396475 0.2162651832865833 0.2717730441098496 0.2185466727242058 0.2313811877064211 0.2114125918620027 0.2403892549551598 0.1277219823024722 0.2666881235390445 2:8 3:10 4:9 5:5 6:5 7:6 8:13 9:12 10:4 14:6 15:8 16:7 17:5 18:5 19:4 20:4 21:6 22:7 23:5 24:2 25:6 26:7 
-0.2186310552481552 -0.1786473932457163 -0.2153540622856052 -0.1441460635755916 -0.2183737310537005 -0.1658164320087672 0.185511637982799 0.1674003024539679 0.2366395856705053 0.2160286497279755 0.1894975163668405 0.1536155859308481 0.1686662732331848 0.1929339883360596 0.155171788188349 0.2220743230126873 0.2360136555747079 0.1582674123860563 0.2127788744666125 0.1776013189006902 0.2246526892833281 0.1802536074268166 0.193858920571011 0.1767348191590436 0.198932920052644 0.1225591604927002 0.217676221532235 2:8 3:10 4:8 5:6 6:5 7:9 8:13 9:12 10:1 14:6 15:7 16:7 17:4 18:4 19:5 20:5 21:7 22:7 23:6 24:2 25:5 26:7 
-0.03969080130991523 -0.03128950778283425 -0.0397361059810285 -0.007812320736741535 -0.04078436638125507 -0.03070036922958867 0.03352631533789808 0.0317695710546838 0.04333313163072782 0.03702236351291478 0.03323150916777718 0.0285820807163314 0.03175452358858741 0.03613683014603156 0.0300284834220892 0.04169195227631573 0.04408575461277737 0.02884133731955108 0.04002092445855771 0.03157286242886685 0.04034607920153913 0.03400958499731718 0.02459059195785854 0.01143990149917101 0.03787273994956677 0 0 2:9 3:10 4:9 5:5 6:6 7:6 8:13 9:12 14:5 15:7 16:6 17:5 18:4 19:4 20:4 21:6 22:8 23:5 24:4 25:5 26:7 
-0.2871560207080401 -0.6159163547633938 -0.281048826786211 -0.2257723649538814 -0.287177672878108 -0.2200800395620277 -0.2700527095133523 0.2278676593050751 0.3062612953870509 0.2911286635700969 0.2704486914020925 0.2865943485623135 0.2242480179880163 0.2532289323098026 0.207296204526874 0.2889370528549924 0.3045413766470861 0.2112540686245786 0.2775598754332314 0.2368841942203437 0.2924666645038395 0.2381077308752128 0.2587899255253859 0.2421833437839276 0.2614240427441835 0.2300586111265094 0.3044279150056161 1:2 2:13 3:13 4:5 5:2 6:2 7:5 8:10 9:9 14:2 15:3 16:2 17:7 18:9 19:6 20:4 21:4 22:5 23:5 24:5 25:5 26:4 
-0.2285714495418959 -0.3036834535234939 -0.2251602398055915 -0.1644897803574564 -0.2281281857429028 -0.1762084260877203 -0.2143925339634907 0.1909068596168508 0.2446134953118401 0.2238525465298865 0.2378810980184891 0.2295733754550286 0.1785139901822345 0.2029614415636402 0.1658971827950609 0.2315963714317388 0.2450198311745521 0.1693792047822111 0.2222890839978927 0.1888234487667953 0.2337125219731943 0.190351595101819 0.2054919210486774 0.1937066801466641 0.208126501276949 0.1811446995560138 0.2434651301704224 1:1 2:13 3:13 4:2 5:2 6:2 7:6 8:10 9:9 14:2 15:2 16:3 17:6 18:8 19:5 20:4 21:6 22:5 23:4 24:5 25:4 26:4 
-0 -0 -0 -0 -0 -0 -0 0 0 0.009719886383869027 0 0 0 0 0 0 0 0 0 0 0 0 0 0 0 0 0 1:2 2:13 3:13 4:2 5:2 6:2 7:4 8:10 9:9 10:1 14:2 15:2 16:2 17:6 18:9 19:8 20:4 21:4 22:4 23:4 24:5 25:4 26:4 
-0.2983124632948164 -0.1766936845409624 -0.2931200477741269 -0.2259560782276465 -0.2974395792614371 -0.2315459736293733 -0.2821366492505794 0.2292720174995471 0.3211837293799533 0.3032357132529934 0.2717884882675859 0.3003341553348787 0.2349515754861786 0.2659398127453391 0.2173453341577596 0.3022043088487401 0.3199341269792257 0.2209865255365633 0.2913287301994435 0.2481869738326287 0.3054360974924017 0.250120292924757 0.2685501088927277 0.2531880075322509 0.2735009105830978 0.2325709804114612 0.318183065785232 1:1 2:13 3:13 4:5 5:2 6:2 7:4 8:10 9:10 10:1 14:2 15:2 16:2 17:8 18:8 19:5 20:6 21:5 22:4 23:6 24:5 25:4 26:4 
-0.310101804955244 -0.2042651578834742 -0.3044243023841883 -0.2450838442195097 -0.3092301533829194 -0.2380964075627148 -0.2914295623317509 0.240762587986282 0.3319395068678063 0.3037037875818342 0.2723690118837627 0.3108493581747273 0.2420422801609036 0.2738445025400568 0.2255726046773541 0.3130915324443829 0.3294550194626117 0.2290971948528101 0.3016211524614803 0.2560916435153255 0.3158336719746256 0.2574372411945404 0.2782262236423592 0.2608743454820338 0.2820563644626231 0.2448043562488644 0.3303147626563067 2:13 3:13 4:5 5:2 6:2 7:3 8:11 9:10 10:2 14:2 15:2 16:3 17:8 18:8 19:5 20:6 21:5 22:5 23:4 24:4 25:5 26:4 
-0.1325331300691714 -0 -0.1294642211604219 -0.09959265757464333 -0.1333298730301181 -0.1019817586360724 -0.1279003403166063 0.09784663439038159 0.1419554685082747 0.1785729226865442 0.1119607692506797 0.1338513877992656 0.1050148852264398 0.1156914720431899 0.09790122512623356 0.1348411030944052 0.1416879542362453 0.09988881071725191 0.129458210773473 0.1109624796153301 0.1377308300055243 0.1106195667713864 0.1181107434041983 0.113276128210281 0.1214044792459123 0.1040301649517366 0.1408235802617004 1:4 2:13 3:13 4:2 5:2 6:2 7:2 8:10 9:9 14:2 15:2 16:2 17:6 18:8 19:5 20:4 21:5 22:4 23:5 24:4 25:5 26:5 
-0.5429663823185209 -0.4214549260024251 -0.5322618077182003 -0.4143808806080828 -0.5423546425413837 -0.4191077100509516 -0.5184808418773005 0.4164606662190312 0.5817577089129157 0.5739449963496022 0.4907153444957078 0.546774525294956 0.4255911047125996 0.4808013049657695 0.3929933469253299 0.5479786167993979 0.578465873765555 0.4008832624881238 0.5273803225702427 0.44964232648507 0.5548468256769942 0.4523301691415694 0.487928953104959 0.458548157866322 0.4959541369001898 0.4278756767883721 0.577213433642413 1:1 2:13 3:13 4:2 5:2 6:3 7:4 8:11 9:11 10:1 14:2 15:2 16:6 17:7 18:8 19:5 20:5 21:5 22:4 23:4 24:4 25:5 26:4 
-0.03875503938831459 -0.3703633782982838 -0.03950643029975139 -0.04067302590424604 -0.03888647826980436 -0.03187696443790749 -0.03437662401233193 0.03405886539051842 0.04427590257744717 0.04527578836279508 0.01976975750630117 0.03996965245359279 0.03205240619436942 0.03616402899915222 0.02950169984581628 0.04055505574631721 0.04310670097347324 0.03027230884392159 0.04009270479150483 0.03380264258082508 0.04185232272544608 0.03438739724062695 0.03608837036421816 0.03457398721968362 0.03708119193066763 0.02964035885565882 0.04342449631097035 1:3 2:13 3:13 4:3 5:2 6:2 7:4 8:10 9:9 10:2 14:2 15:2 16:2 17:6 18:9 19:6 20:4 21:5 22:5 23:4 24:5 25:6 26:5 
-0.6964944591265619 -0.5918339817150317 -0.6826583874987072 -0.5243829149933851 -0.6937278112907218 -0.535040285789642 -0.6493852254813634 0.5398658691403556 0.7432090992165344 0.8226767306913981 0.6244494740280521 0.7002883746767785 0.5427226892691885 0.6156497693187357 0.5023334715691599 0.7022324153755621 0.7413480655984596 0.5128311398755074 0.6740854865204196 0.5748190122023995 0.7093161334750862 0.5788053463450562 0.6233446782796158 0.5866168633840869 0.6341880665090721 0.5425202629275803 0.739449701259611 2:13 3:10 4:2 5:2 6:2 7:2 8:10 9:8 14:2 15:2 16:2 17:5 18:8 19:5 20:2 21:4 22:4 23:4 24:3 25:4 26:4 
-0.8981098212555642 -1 -0.8807757144131203 -0.6710970832013825 -0.8963173650117168 -0.6930665290786912 -0.8371245447961896 0.7081361858243565 0.9623849777302614 1 0.8046715954794786 0.8987313227834086 0.7031378408281952 0.7952791268022666 0.6517874487245733 0.9070053990509867 0.9568575743637114 0.6629112456345631 0.8728371875754033 0.7436079338547235 0.9167487435404329 0.7477089550261103 0.8095109949193698 0.7595763397079911 0.8196352058905398 0.7040455189424759 0.9552473224246938 1:2 2:13 3:13 4:2 5:3 6:2 7:3 8:9 9:8 14:2 15:2 16:2 17:2 18:6 19:8 20:6 21:4 22:4 23:4 24:6 25:4 26:5 
-0.05663950300678822 -0.0189454583216912 -0.05614296129071686 -0.03640521869875688 -0.05715986248915889 -0.04626930158186126 -0.0510344487938003 0.04703782039640842 0.06419774371188754 0 0.04708841547120959 0.0560418059120574 0.04741750968001501 0.05165343192165437 0.04414019103321502 0.05797244552039062 0.06122829018334816 0.0426607648383288 0.05818049585964586 0.04828375165934428 0.05911205990868086 0.0487132268259589 0.05339655894141111 0.0486074220629806 0.05373290102973794 0.04369255138873475 0.06163198652170309 2:13 3:12 4:1 5:2 6:2 7:2 8:10 9:8 14:2 15:2 16:2 17:6 18:8 19:4 20:3 21:4 22:4 23:4 24:3 25:4 26:4 
-0.1542968596599538 -0.1673922784633164 -0.1499111391675891 -0.1137212978762785 -0.1533498729033198 -0.1174189188488513 -0.1405941979522696 0.1172475518151057 0.163115969158861 0.1503609216031209 0.1345082638525557 0.1516974728713932 0.1200724638250306 0.1360590979469684 0.1099615949769641 0.1546811257438075 0.1631563540927971 0.1126435186429852 0.1479515337821064 0.1264000027856772 0.1559427608768188 0.1269868619858736 0.1372870411000442 0.1293210225637239 0.1396141311356283 0.1191903598688625 0.1628958536204269 2:13 3:13 4:3 5:2 6:2 7:2 8:10 9:9 10:3 14:2 15:2 16:2 17:6 18:8 19:5 20:5 21:4 22:4 23:4 24:5 25:5 26:5 
-0.006149740501876326 -0 -0.004689282080174283 -0 -0.005725291624430313 -0.004848513870981863 -0.001321412970244096 0 0.004342668320718845 0.002061831046835207 0 0.003713618941969224 0.0028473434580151 0.004398845299163851 0.002809649998280836 0.003809796583198441 0.004512003160067697 0.002047142403663443 0.003994952421596327 0.003406146129314799 0.002822225591356343 0.003162058015976714 0.004744499267661603 0.001827230694404445 0.00425090363557241 0 0.004666349622634056 1:3 2:13 3:13 4:3 5:2 6:2 7:3 8:10 9:9 10:1 14:2 15:2 16:2 17:6 18:9 19:5 20:5 21:6 22:6 23:4 24:4 25:4 26:4 
-0.2398351287928809 -0.2142103634956181 -0.235723562034118 -0.1754637335011364 -0.2380255200481481 -0.1848060391924382 -0.2179851059311584 0.1936333376948948 0.2563373559561327 0.2105887003680754 0.2145079088795087 0.2368657963163073 0.1857389082021777 0.213656320178312 0.1722032966714554 0.2414594125036443 0.2550242952746364 0.1752240740197685 0.2325014127777812 0.1970194512991934 0.2425804882697125 0.1989259357201391 0.2158483924647322 0.2009380547838885 0.2176193022079319 0.1841845914213003 0.2547222663386763 1:4 2:13 3:13 4:2 5:2 6:3 7:2 8:10 9:9 14:2 15:2 16:3 17:7 18:8 19:6 20:4 21:4 22:4 23:5 24:4 25:5 26:4 
-0.03920067146200583 -0 -0.0382791249550678 -0.02570560012950963 -0.0392138878694944 -0.02988576898264483 -0.03781867792159843 0.02995473327081541 0.04252494075768504 0.07308229497575274 0.05419826533819484 0.04089295277022027 0.0314471223983642 0.03502035486086071 0.02866337909298991 0.04015698467386993 0.04269306426208332 0.02960258366415952 0.03807450223529467 0.03313577541063877 0.04125939082134159 0.03375769152787578 0.03469206757920051 0.03448694945084363 0.03653489252350745 0.0344776079981494 0.04182042415844008 1:3 2:13 3:13 4:3 5:3 6:2 7:2 8:10 9:9 10:1 14:2 15:2 16:3 17:6 18:8 19:6 20:6 21:4 22:6 23:4 24:4 25:4 26:4 
-0.2228717621251479 -0.08208073783217711 -0.2191986163746386 -0.1718101403785849 -0.2225654419392623 -0.1762132724493812 -0.2086148942747512 -0.1885674053503144 0.2383956781374209 0.2250783843053253 0.1737722890823897 0.2229900342311326 0.1752607663790954 0.1996443652606006 0.1642257322864245 0.2255220037393577 0.2364570936146919 0.1684795718995288 0.2196150967964625 0.1870942242391119 0.227126201869296 0.1890257247297873 0.1994396641775805 0.1885659843442166 0.2058829328961035 0.1739778133019342 0.235600625349632 2:13 3:13 4:2 5:5 6:7 7:8 8:4 9:2 14:2 15:2 16:2 17:6 18:7 19:5 20:5 21:5 22:4 23:4 24:4 25:4 26:4 
-0 -0.04154721054898963 -0 -0 -0 -0 -0 -0 0 0 0.004838111220970298 0 0 0 0 0 0 0 0 0 0 0 0 0 0 0 0 2:13 3:13 4:3 5:4 6:6 7:7 8:5 9:2 14:2 15:2 16:4 17:5 18:6 19:5 20:4 21:5 22:4 23:4 24:4 25:4 26:4 
-0.421096722106376 -0.3524549341561656 -0.4126426748893098 -0.3238195676791179 -0.4208720119863726 -0.3349411603153489 -0.3959088741577023 -0.3746753464979201 0.445145899490678 0.4256146658819397 0.3769438892973269 0.4199160629765575 0.3481823503794406 0.3756084291442233 0.3200914171377775 0.4253359536411946 0.4444214013352157 0.3196127002861535 0.4091002177891232 0.3547033242190902 0.4286081375008419 0.3584551660217857 0.3822333136661855 0.3561739097331069 0.3887980307499685 0.3375869080099536 0.4432534490514105 2:13 3:13 4:1 5:4 6:6 7:7 8:4 14:2 15:2 16:2 17:4 18:5 19:5 20:4 21:4 22:4 23:4 24:4 25:4 26:4 
-0.6000251250335146 -0.5855026462384647 -0.5882532108022319 -0.4611536321934634 -0.5979921346683114 -0.4709532506996068 -0.562783312926556 -0.5272651112806842 0.6397455114393755 0.6062110496086227 0.54060838877555 0.5997619358487418 0.4794062414611298 0.5383244571969624 0.4476626440563279 0.6040965740382199 0.6352158224114798 0.4557413208599563 0.5842383750206804 0.5070233707701858 0.6110476228690551 0.5087472931072792 0.5478420739852773 0.5201811452467129 0.5527747181065364 0.4806612791019085 0.6347693987194601 1:1 2:13 3:13 4:2 5:5 6:8 7:7 8:4 9:2 14:2 15:2 16:2 17:4 18:5 19:5 20:4 21:5 22:4 23:5 24:4 25:7 26:6 
-0.1536822626684843 -0.1045910444185291 -0.1469760910749434 -0.1183286708465256 -0.1528385077177379 -0.1262655274375575 -0.1443011489791653 -0.1356575831729527 0.1692445717562338 0.1557695054235172 0.1224585182464572 0.1535990911688978 0.1230923083168279 0.1366934332309179 0.1197669522617419 0.1540694174052348 0.1686544131263584 0.1171692279296566 0.1494679507039159 0.1302529832669899 0.1553969329279772 0.129910971875505 0.1367327867681789 0.1237438326471838 0.1423636300905619 0.1229630600003611 0.1663066544207912 1:4 2:13 3:13 4:2 5:4 6:6 7:7 8:4 14:2 15:2 16:2 17:4 18:6 19:6 20:4 21:6 22:5 23:4 24:4 25:4 26:4 
-0.1716995574668903 -0.1278177994384814 -0.1794463164167992 -0.1326420942466786 -0.173406933766039 -0.141411203104127 -0.1622034024621907 -0.1477909455103786 0.187394004358455 0.1732574027872086 0.1383738825469798 0.1715550786594005 0.1366428139070903 0.15298930318346 0.1317105073109991 0.1738715385516431 0.1845887463878644 0.1305700768333325 0.1677264314222917 0.144352413495953 0.1755659425034908 0.1468472756150255 0.1581114371149533 0.164883206787199 0.1601133716409353 0.1357885571743868 0.1841812631515654 1:2 2:13 3:13 4:5 5:4 6:6 7:7 8:4 14:2 15:3 16:2 17:4 18:5 19:6 20:4 21:5 22:5 23:4 24:5 25:5 26:4 
-0.2498101772253241 -0.34603202681164 -0.2461361064864308 -0.1924525781077367 -0.2479965201336462 -0.1970609853760587 -0.2330384302077405 -0.2280569418405695 0.2661424220575736 0.2517545151924466 0.2551518876620789 0.2485821994280892 0.2005625294530329 0.222805495619079 0.1864300971648336 0.2507638542925221 0.2644739067673265 0.1906728889562255 0.242813171944429 0.2107171603938505 0.2543063084742472 0.2104100620718934 0.2290294349296153 0.2228661580061837 0.2297444589229526 0.2059785554579147 0.2642693363542525 1:1 2:13 3:13 4:4 5:5 6:6 7:7 8:5 9:2 14:2 15:2 16:3 17:6 18:5 19:5 20:4 21:6 22:4 23:4 24:6 25:4 26:5 
-0 -0.001413055151448713 -0 -0 -0 -0 -0 -0 0 0 0 0 0 0 0 0 0 0 0 0 0 0 0 0 0 0 0 2:13 3:13 4:4 5:4 6:6 7:7 8:4 9:2 14:2 15:2 16:3 17:4 18:5 19:5 20:4 21:5 22:4 23:5 24:4 25:5 26:5 
-0.05598336135077877 -0 -0.05881209604541139 -0.04225542287852722 -0.05407847868502901 -0.05513205507986255 -0.05065440866296062 -0.04184918415825463 0.05513428214411088 0.05674366344778872 0.05224579543308623 0.05659836331663398 0.0462210947288809 0.05508009985463895 0.04250469821593944 0.05525881661768443 0.06356649987080955 0.04448343565356731 0.05538703725762587 0.04780445328776978 0.05624837572431837 0.04568659782363383 0.04985085908909641 0.04995019758979433 0.04921683139182911 0.04262205609374396 0.05650004913434902 2:13 3:13 4:4 5:4 6:6 7:7 8:4 14:2 15:3 16:2 17:4 18:5 19:5 20:4 21:5 22:4 23:5 24:4 25:4 26:4 
-0.3668081545902844 -0.481057094186463 -0.3611276473519551 -0.2811171994348768 -0.3684306993217018 -0.2857316607763106 -0.3459588962123027 -0.336020140331362 0.3906396558235553 0.3721239269368357 0.3808908998376093 0.3675181792453763 0.2958947278663072 0.3312357411479638 0.2744483834623575 0.3704017079983408 0.3874271971979802 0.2813261637229669 0.3561922757714312 0.3110712929035303 0.3735612952161203 0.3131183261640912 0.338146849354151 0.318351658486146 0.3382103658535679 0.2982388616392719 0.3888936448978336 2:13 3:13 4:4 5:5 6:6 7:8 8:5 9:2 14:2 15:3 16:2 17:6 18:7 19:5 20:4 21:5 22:5 23:4 24:5 25:4 26:4 
-0.9693599746030198 -0.9785744995429335 -0.9533359366276648 -0.7450025655318253 -0.9674258980856553 -0.7688878673578103 -0.909800662258591 -0.8570020972158287 1 0.9810013025795272 0.8924467744156539 0.9693787665999386 0.7786601778354513 0.8702420330643022 0.7254428268413548 0.9777152933786533 1 0.738118362159191 0.9448585168074323 0.8178507790505384 0.9872465117448733 0.822787411063006 0.881917130833388 0.8352116438014223 0.8929560302394517 0.7761721765304303 1 1:7 2:13 3:13 4:4 5:4 6:6 7:7 8:5 9:2 14:2 15:3 16:4 17:5 18:7 19:7 20:4 21:5 22:4 23:5 24:5 25:6 26:4 
-0.2709233361009186 -0.2025787270489094 -0.2672263127867866 -0.2087804951672951 -0.270901362486571 -0.2110179547473724 -0.2543688412424983 -0.2361660331913579 0.2932077171290037 0.2737384522955706 0.2715509338488653 0.2711470399328604 0.2158808169375477 0.2453653722067481 0.1987125550839899 0.2744273166971635 0.2926003699286491 0.2059624678995091 0.2647298458552211 0.2282260190547288 0.2765340722773846 0.2303936122999046 0.2478513984037256 0.2337111120824921 0.249247008399626 0.2160046973476381 0.2902744794055723 1:4 2:13 3:13 4:2 5:4 6:6 7:8 8:5 14:3 15:3 16:3 17:4 18:5 19:5 20:4 21:5 22:5 23:5 24:5 25:4 26:4 
-0.3916592011063619 -0.3118981174018421 -0.3761217351557923 -0.2724010739275967 -0.3902581194628959 -0.2822410090578821 -0.3565344780259004 -0.3248870076853692 -0.2848947610927206 0.3948307126378826 0.3389847075124487 0.3900557647063856 0.2880417357676998 0.3358059269584083 0.2635448564803645 0.3933785221060276 0.4246157359391729 0.2682377737016589 0.376832540044393 0.3081098759610544 0.4016300916785107 0.3041353991896614 0.3418056046560014 0.3162654396735157 0.3484818403007989 0.2867433583709075 0.4234698798024901 1:2 2:10 3:10 4:2 5:2 6:4 7:10 8:8 9:4 10:2 11:2 12:10 13:9 14:8 15:11 16:8 17:6 18:7 19:7 20:6 21:7 22:9 23:6 
-0.2579435843929959 -0.2054483380698161 -0.2483560040674202 -0.1797033465922306 -0.2574991209590578 -0.1862420855992821 -0.234522341444573 -0.2139777131100092 -0.1878550942779355 0.2599358890192873 0.223888935708002 0.2575233652682071 0.189289349810161 0.2207668963266555 0.1731094764082813 0.2593004839663666 0.2808718004908807 0.1770345242262912 0.2486334847761362 0.2032077884533401 0.2652337273822857 0.2000442697458939 0.2253122393806656 0.2078509033943777 0.2300263513482018 0.1889173782601357 0.2787736521815424 2:10 3:10 4:5 5:2 6:4 7:10 8:8 9:3 10:2 11:2 12:10 13:9 14:1 15:8 16:11 17:8 18:7 19:8 20:7 21:6 22:7 23:6 24:6 
-0.01390587221893702 -0.01099030871241038 -0.01355960135796156 -0.01011056830816936 -0.01433334430440635 -0.009904844347747221 -0.01224942934485263 -0.01132659223447459 -0.01078289357229493 0.01419203968182772 0.0123108307728571 0.01459134677347142 0.01037792656913649 0.01150288728204249 0.009389546800037559 0.0136342446150963 0.01525782436532207 0.009683321946649223 0.01317688949303823 0.01027064110319242 0.01459362171682781 0.01084134283195177 0.01209368908791427 0.01111592091207282 0.01246021229026079 0.01007427175252179 0.01456373071765147 1:1 2:10 3:10 4:3 5:2 6:3 7:11 8:8 9:2 10:2 11:5 12:10 13:9 14:1 15:8 16:11 17:9 18:6 19:7 20:6 21:8 22:6 23:6 24:7 25:1 
-0.3456954993944515 -0.2754070891015671 -0.3333177238617976 -0.2400254685251837 -0.344694248989214 -0.2509193042311181 -0.3151165593554474 -0.287524434551607 -0.2514505080886736 0.3483537345767427 0.3001990602207478 0.3452517323316716 0.2543607997017507 0.2970904155245513 0.2320931762650241 0.3474651030423089 0.3759639041754157 0.2370698461825681 0.3337117586797426 0.273316969641633 0.3552573387877304 0.2683634272114393 0.3014576361956083 0.2792100363199789 0.3085493269740762 0.2530665985963214 0.3751880400704961 2:10 3:10 4:3 5:2 6:2 7:10 8:8 9:2 10:3 11:5 12:10 13:9 14:8 15:11 16:8 17:6 18:8 19:8 20:7 21:6 22:6 23:6 
-0.283670653707894 -0.2252180546106709 -0.2733531193312428 -0.1972181338034294 -0.2821589111441875 -0.2050307725482027 -0.2583619669628632 -0.2342121544320798 -0.2060800118215339 0.2856072565524417 0.245577027982817 0.2821185376928962 0.2083708060379351 0.2425863785287137 0.1900977166581746 0.2843561298476648 0.308014560097715 0.1940709504101178 0.2732376907642155 0.2227427748028055 0.2906896339450984 0.2198901495350268 0.2479899402636777 0.2281210247179034 0.2520383729580054 0.2074487844354297 0.3067432251540039 1:1 2:10 3:10 4:3 5:2 6:3 7:10 8:9 9:3 10:2 11:3 12:11 13:10 14:10 15:11 16:8 17:7 18:7 19:6 20:7 21:7 22:6 23:7 24:1 
-0.2615818447403988 -0.2095486204698011 -0.2528612854225494 -0.1823184216069415 -0.2615391441936574 -0.189965919545413 -0.2399782111345356 -0.2178057701833651 -0.1904562981270994 0.2644767802173162 0.2276690611520632 0.2609693694734417 0.1930255535915449 0.2246564596990033 0.1759865264591 0.2639146909828001 0.2852905029443574 0.1802302569026678 0.2531897767754214 0.2071285079526906 0.2694291338824582 0.2035209156423165 0.2279513670005018 0.2113175620910602 0.2332486255900416 0.1916843085225641 0.2840954061170189 1:2 2:10 3:10 4:2 5:2 6:4 7:10 8:8 9:3 10:3 11:2 12:10 13:9 14:8 15:11 16:10 17:6 18:7 19:6 20:7 21:8 22:6 23:6 
-0.1313727850259601 -0.105092372493701 -0.1264796366972726 -0.09201977947983352 -0.1312211490751225 -0.09520731666125405 -0.1200225190997339 -0.1091306401018589 -0.09601567961268304 0.1330407145647756 0.1150593745580357 0.1312110298276846 0.09646780033380925 0.1134525052499072 0.08879669320004463 0.1332694810553576 0.1434091415746641 0.09101399960360913 0.1276963277575339 0.1039871838367419 0.1348812799771845 0.1021270304276293 0.1145409287285626 0.1065868107039184 0.1173433013632264 0.09635968439543345 0.1424324175365137 2:10 3:10 4:2 5:2 6:4 7:10 8:8 9:4 10:2 11:5 12:10 13:9 14:1 15:8 16:11 17:8 18:8 19:6 20:8 21:6 22:8 23:6 24:6 
-0.6740003596443391 -0.537052089912735 -0.649060963708899 -0.4690071812326826 -0.6722154098471129 -0.487897617889368 -0.6158236552070688 -0.560056704440232 -0.4903689634637733 0.6797857486544208 0.5845540244570631 0.6715383625135041 0.4966631142502065 0.5781893968393069 0.4526426156338868 0.6771678939280362 0.7327953466530546 0.4625519959763486 0.6501825422560711 0.5315363517722983 0.6923626682797814 0.5237387567272657 0.5881414872851803 0.5446159927886363 0.6004899020841512 0.4940109262391518 0.7308215205260833 1:1 2:10 3:10 4:2 5:3 6:8 7:11 8:8 9:3 10:2 11:5 12:10 13:9 14:1 15:9 16:11 17:11 18:8 19:8 20:6 21:6 22:7 23:6 24:7 25:2 
-0.372429749860994 -0.2957688701900802 -0.3588169364218204 -0.2579013718273222 -0.3708771097275588 -0.2689872954451006 -0.3399336529861747 -0.3092851404310136 -0.2699383346728863 0.3751792597411148 0.3217474333271651 0.370353905001972 0.2746098317581415 0.3193183691144674 0.2493171096240665 0.3739173303725711 0.4039458437449825 0.2550196364994647 0.3579449308340259 0.2931696080069123 0.3827457087624795 0.2895608538385002 0.3250339135840371 0.3005416318048077 0.3313954916377668 0.2731068248849778 0.4039312794100329 1:2 2:10 3:10 4:3 5:2 6:2 7:10 8:8 9:5 10:2 11:5 12:11 13:9 14:2 15:8 16:11 17:8 18:7 19:8 20:8 21:8 22:7 23:6 24:6 
-0.133421044632801 -0.1049313585995368 -0.1276693469988663 -0.09253090012022568 -0.132427097787854 -0.09614645655304806 -0.1215522756237731 -0.1109234844551972 -0.09589603834732287 0.133741964854959 0.1146161208260757 0.132338517873649 0.09796664069654194 0.1148183483139333 0.08869220567435888 0.1333982355527287 0.1440482137499033 0.09119853135796247 0.1278721857505283 0.1051199404888263 0.1367062819306925 0.1036639625063034 0.1156272388989872 0.1070059618610221 0.1184392100222208 0.09762334501885786 0.1435868591510306 1:1 2:10 3:10 4:2 5:2 6:3 7:10 8:9 9:2 10:2 11:3 12:10 13:9 14:8 15:13 16:8 17:7 18:6 19:6 20:6 21:7 22:6 23:6 
-0.05228253856381823 -0.04242397456813538 -0.0514458348546486 -0.0367162817712478 -0.05197109841706166 -0.03921713488641108 -0.05011402958139272 -0.0458637152182177 -0.03808389296795753 0.05386649108919499 0.04554012541472297 0.05268326532915373 0.04102963448073237 0.04555944696796944 0.0349109857980976 0.05391044468513741 0.05740193052193008 0.0364705055793753 0.05132847311328893 0.04321397658857489 0.05430284576441333 0.04195987222173649 0.04550359454908518 0.0449423041710806 0.04703975101814967 0.03853959365997468 0.05908550730782565 2:10 3:10 4:2 5:2 6:4 7:10 8:8 9:2 10:2 11:2 12:10 13:9 14:1 15:8 16:11 17:8 18:6 19:6 20:6 21:6 22:6 23:7 24:6 
